<?xml version="1.0"?>
<opencv_storage>
<opencv_ml_ann_mlp>
  <format>3</format>
  <layer_sizes>
    38400 2 8 8 8 8 4 4</layer_sizes>
  <activation_function>SIGMOID_SYM</activation_function>
  <f_param1>2.</f_param1>
  <f_param2>1.</f_param2>
  <min_val>-9.4999999999999996e-01</min_val>
  <max_val>9.4999999999999996e-01</max_val>
  <min_val1>-9.7999999999999998e-01</min_val1>
  <max_val1>9.7999999999999998e-01</max_val1>
  <training_params>
    <train_method>BACKPROP</train_method>
    <dw_scale>1.0000000000000000e-03</dw_scale>
    <moment_scale>0.</moment_scale>
    <term_criteria>
      <epsilon>1.0000000000000000e-02</epsilon>
      <iterations>1000</iterations></term_criteria></training_params>
  <input_scale>
    2.3349606019823003e-02 -2.2864040349183501e+00
    2.3028801097584504e-02 -2.2608787168475151e+00
    2.3306297848787932e-02 -2.3093098192330270e+00
    2.3364863128966344e-02 -2.3611787250670195e+00
    2.3393211278987074e-02 -2.3999308116669922e+00
    2.2924627989354875e-02 -2.3633207399934935e+00
    2.2956303373215185e-02 -2.3472820199112525e+00
    2.2934890421368936e-02 -2.3456137930945502e+00
    2.3468709472045868e-02 -2.4103431387312564e+00
    2.4296988659470022e-02 -2.4586895910520514e+00
    2.4814269874243445e-02 -2.4762103511439637e+00
    2.3479136251396502e-02 -2.4282229434540858e+00
    2.3590153541135570e-02 -2.4474784298928154e+00
    2.3525259815768376e-02 -2.4269780822437865e+00
    2.2707017569717904e-02 -2.3648842730280064e+00
    2.2616613136395718e-02 -2.3494291930268347e+00
    2.2426463583343811e-02 -2.3213938270531682e+00
    2.2810319919364008e-02 -2.3025462709512552e+00
    2.2918532051776252e-02 -2.2784406551700518e+00
    2.3993878202576219e-02 -2.3365402188292830e+00
    2.3581038524484930e-02 -2.2718186887566278e+00
    2.3529789419208195e-02 -2.2890741729300155e+00
    2.4499988727998804e-02 -2.4085159373399736e+00
    2.4276581890393441e-02 -2.4040712827708370e+00
    2.4008959816551097e-02 -2.3661102728299932e+00
    2.3930158440862589e-02 -2.3431160250646879e+00
    2.3615672615620420e-02 -2.3254728528483950e+00
    2.3136399406879483e-02 -2.2794611688368764e+00
    2.2231254760150271e-02 -2.2310832547075812e+00
    2.2195856276099712e-02 -2.2242518019407420e+00
    2.2033751260583385e-02 -2.2459403273571930e+00
    2.1424135250810029e-02 -2.2164241741292559e+00
    2.0940219213840924e-02 -2.1825419389698748e+00
    2.1115248303084606e-02 -2.1973055265397416e+00
    2.1514198035653780e-02 -2.2049608191313799e+00
    2.1509826796367443e-02 -2.2144122257010324e+00
    2.1741556647223062e-02 -2.2193682200227816e+00
    2.2051942676861114e-02 -2.2175984854418456e+00
    2.2482740059480217e-02 -2.2271964371422590e+00
    2.2551233981016577e-02 -2.2180932468487384e+00
    2.2972515221683375e-02 -2.2390370801861170e+00
    2.3534743507290241e-02 -2.2890212463511044e+00
    2.4070145237196913e-02 -2.3438303924720492e+00
    2.3519664648360351e-02 -2.3482247000056140e+00
    2.2293274996367643e-02 -2.2746740476407394e+00
    2.1961908703945616e-02 -2.2846624230712518e+00
    2.1743422138852515e-02 -2.2015214915588173e+00
    2.1337354618200379e-02 -2.1284011231654878e+00
    2.1264179465005615e-02 -2.1339087369939160e+00
    2.1394913569675513e-02 -2.1509181858059008e+00
    2.1268458833038996e-02 -2.1230997343048985e+00
    2.1813667953996769e-02 -2.1950003378709249e+00
    2.3001693612908242e-02 -2.3653843903410583e+00
    2.3834102657618692e-02 -2.4787466763923440e+00
    2.3885463704141532e-02 -2.4900595911567547e+00
    2.3439433780420224e-02 -2.4588765107266966e+00
    2.3947859531773169e-02 -2.4987414343266052e+00
    2.3791221440925374e-02 -2.4617155321630224e+00
    2.3956838784847653e-02 -2.4238603877373985e+00
    2.4120327897011754e-02 -2.3716038310101615e+00
    2.4237660880455723e-02 -2.2773761248869104e+00
    2.2946590227032819e-02 -2.1160406783224013e+00
    2.1734146709134098e-02 -1.9818825030391656e+00
    2.1384842310100280e-02 -1.9444410880030385e+00
    2.1180942452105608e-02 -1.8891956512111012e+00
    2.0911452222997177e-02 -1.8299896996511507e+00
    2.0758671038382557e-02 -1.8097786841644430e+00
    2.0595383313826876e-02 -1.7948408481106626e+00
    2.0554321515414632e-02 -1.7788830984249755e+00
    2.1187875904743862e-02 -1.7789388763886365e+00
    2.1396181640187889e-02 -1.7723575689335183e+00
    2.0880244408185641e-02 -1.7537032547829552e+00
    2.0984444197570420e-02 -1.7748547518467799e+00
    2.0889684159833433e-02 -1.7895100458966404e+00
    2.1229435533946215e-02 -1.8443072120115773e+00
    2.1477993090065799e-02 -1.9036091716587296e+00
    2.1138124614367270e-02 -1.8939039036588492e+00
    2.1246213386461918e-02 -1.8773926737855440e+00
    2.0887851584916239e-02 -1.8145134254646842e+00
    2.1139237477331405e-02 -1.7879470970883824e+00
    2.1135607560938085e-02 -1.7898016766376206e+00
    2.0238240370603153e-02 -1.7448582919518878e+00
    2.0569490634384298e-02 -1.7907144062502058e+00
    1.9826959921389605e-02 -1.7226924495334650e+00
    1.9041719494296661e-02 -1.6605244931730974e+00
    1.8601527322318914e-02 -1.6701212201550197e+00
    1.8181486095027760e-02 -1.7298237764843172e+00
    1.7663107236122588e-02 -1.7561745086642566e+00
    1.7485738311121223e-02 -1.7055549408353299e+00
    1.7600849173453056e-02 -1.6785809850932361e+00
    1.7630845789495166e-02 -1.7253185058663367e+00
    1.7162211074569691e-02 -1.7287027155112018e+00
    1.7251275992309179e-02 -1.7610024118058336e+00
    1.7526125689284536e-02 -1.8101699589762175e+00
    1.8239987750450420e-02 -1.8870096418193252e+00
    1.8498192960715736e-02 -1.9541869415828845e+00
    1.8464435037948822e-02 -1.9910116372170044e+00
    1.8468935024266026e-02 -2.0333667838931975e+00
    1.8274084708219694e-02 -2.0083842074493954e+00
    1.8357256479473158e-02 -2.0143959908412792e+00
    1.8188983190082907e-02 -2.0243511518599089e+00
    1.8418907535852166e-02 -2.0826970390397386e+00
    1.9082721008336658e-02 -2.1683825991234364e+00
    1.9375102815279967e-02 -2.2574196496030172e+00
    1.9722952153496478e-02 -2.2997410459889474e+00
    2.1080826481523769e-02 -2.4689720242252813e+00
    2.2130727971896233e-02 -2.5894209154844265e+00
    2.1195171962208170e-02 -2.4765835875159716e+00
    2.1520275242461192e-02 -2.5528426506369590e+00
    2.1654531911764974e-02 -2.5803343366678124e+00
    2.1542835237123324e-02 -2.6165976639999164e+00
    2.1415770087969684e-02 -2.6046930369493126e+00
    2.1138460025171349e-02 -2.5689234174908524e+00
    2.1050825052209159e-02 -2.5449969060278779e+00
    2.0238871544617398e-02 -2.4361391685949978e+00
    2.0322341457939496e-02 -2.4123543053367724e+00
    1.9544442150201725e-02 -2.2903643144767645e+00
    1.9051243313817502e-02 -2.1935991236051802e+00
    1.8735525731852293e-02 -2.1184982817590483e+00
    1.8930232233400051e-02 -2.1518081026215992e+00
    1.9262020731172256e-02 -2.2103168789020162e+00
    1.9784749171586236e-02 -2.3020005314530851e+00
    1.9946311101131889e-02 -2.3442582109483703e+00
    1.9609553267134847e-02 -2.3119217630286824e+00
    1.9559811001794835e-02 -2.3021675278532956e+00
    2.0113508773181160e-02 -2.3796795067269958e+00
    2.0233669767970707e-02 -2.4157392206498209e+00
    1.9997552231465935e-02 -2.3614155001508892e+00
    2.0332453560113022e-02 -2.3998071466149309e+00
    2.1068435003817557e-02 -2.5230647987242194e+00
    2.1568887242162649e-02 -2.6174334870347153e+00
    2.1616487387444330e-02 -2.6474056002066053e+00
    2.1947373111613627e-02 -2.7083806625632749e+00
    2.2050448670218391e-02 -2.7033098349846716e+00
    2.2081359606570428e-02 -2.6949295701655274e+00
    2.2460971605678004e-02 -2.7775033296930460e+00
    2.2672570256631865e-02 -2.8381935675801890e+00
    2.2695117350705288e-02 -2.8331501324565105e+00
    2.2832884875615873e-02 -2.8868031491602526e+00
    2.2654292317694627e-02 -2.8809566514468248e+00
    2.2746726480443798e-02 -2.8761684721352059e+00
    2.2114673192939801e-02 -2.7639571944607773e+00
    2.1690321646686543e-02 -2.6810962921799191e+00
    2.2346732029005036e-02 -2.8033721390250124e+00
    2.1722159071723326e-02 -2.7120609286480022e+00
    2.2196375929098438e-02 -2.7718985599184918e+00
    2.2368850056874147e-02 -2.7564523865539008e+00
    2.2829503890751199e-02 -2.8178871734243129e+00
    2.3795863815812879e-02 -3.0242379649551276e+00
    2.4488495569743141e-02 -3.1243702728328535e+00
    2.4862399909876935e-02 -3.1462236976862448e+00
    2.4626188113849652e-02 -3.0417539966305545e+00
    2.3833144613641999e-02 -2.9498933083157799e+00
    2.3730096453518017e-02 -2.9730035613640471e+00
    2.3197344489323188e-02 -2.9017769106644278e+00
    2.2845210708881212e-02 -2.8100907195259621e+00
    2.3825571742338843e-02 -2.8466143329426208e+00
    2.4149952376733213e-02 -2.8451662643838818e+00
    2.3693010646497818e-02 -2.7722168650189176e+00
    2.3076570271012779e-02 -2.6998276048319556e+00
    2.3078006545900264e-02 -2.7382841516933820e+00
    2.2790748548455555e-02 -2.6711793241905748e+00
    2.3356405866699907e-02 -2.7097412010917350e+00
    2.2305148945067695e-02 -2.5421533107335961e+00
    2.1961945465550643e-02 -2.5156410260539830e+00
    2.1677086934996915e-02 -2.4803021403236811e+00
    2.1953756464118734e-02 -2.4912524096669282e+00
    2.2113848364244969e-02 -2.4277487391701209e+00
    2.2033986782501399e-02 -2.3618931513560875e+00
    2.1684321626667297e-02 -2.3039591728334003e+00
    2.1324370287250056e-02 -2.2812229759565006e+00
    2.1362333445617724e-02 -2.2725395971721625e+00
    2.1457518775021334e-02 -2.2303627753990924e+00
    2.1390563909072985e-02 -2.1351671974692850e+00
    2.1891274031798528e-02 -2.2122624995998219e+00
    2.1906310074875351e-02 -2.2950593833558330e+00
    2.2787187609312018e-02 -2.3905831364678245e+00
    2.2913532811726284e-02 -2.3367897752140627e+00
    2.2842162632520733e-02 -2.3241900478589845e+00
    2.3275659176175002e-02 -2.4075759960356020e+00
    2.3779755115402638e-02 -2.5138984299839859e+00
    2.3605500104839708e-02 -2.4898437724218430e+00
    2.3511594375393963e-02 -2.4687174094163660e+00
    2.2865561162407733e-02 -2.3864630283651573e+00
    2.2444250648932147e-02 -2.3194092659248744e+00
    2.1822296430363947e-02 -2.2954328057689075e+00
    2.1942543419059501e-02 -2.3212966813606184e+00
    2.1884079474115161e-02 -2.2982013688640368e+00
    2.2120536936536359e-02 -2.2492564148650835e+00
    2.1762825040928319e-02 -2.1679977922874785e+00
    2.1316664229512693e-02 -2.1202813863741432e+00
    2.1210841467789409e-02 -2.0848087872232330e+00
    2.2346570453893235e-02 -2.1071800184818872e+00
    2.2933259724742524e-02 -2.1383961667201681e+00
    2.3181566790847645e-02 -2.1332309985486844e+00
    2.3217064316385327e-02 -2.1111698711331295e+00
    2.2425045975690058e-02 -2.0471773505193873e+00
    2.2283083778525802e-02 -1.9991471185393319e+00
    2.3264303220779804e-02 -2.0261093168642774e+00
    2.3666430624265197e-02 -2.0105708562159843e+00
    2.4694492156855655e-02 -2.0462754182703571e+00
    2.5998871275984631e-02 -2.0787279352025894e+00
    2.5759433232793880e-02 -2.0917830668357391e+00
    2.4464720243794785e-02 -2.0319618211579100e+00
    2.3563810097298563e-02 -2.0188562071429832e+00
    2.3087778544555699e-02 -2.0359222898380938e+00
    2.4476398882544197e-02 -2.1091424173446893e+00
    2.3880701872895926e-02 -2.0997378493355936e+00
    2.3282496056474356e-02 -2.0858999876050435e+00
    2.3961593240792816e-02 -2.1003153348051748e+00
    2.4918019662121385e-02 -2.1307738404257206e+00
    2.4243519207871090e-02 -2.0966511696761696e+00
    2.1964085138000571e-02 -1.9897464400015972e+00
    2.1290830227468308e-02 -1.9574257040378675e+00
    2.1671905703261010e-02 -1.9287996075902298e+00
    2.1535701854506192e-02 -1.8519479975451776e+00
    2.1262922459835396e-02 -1.8112143949877970e+00
    2.1151406878114683e-02 -1.8124111768684519e+00
    2.0265590940705423e-02 -1.7715120262656419e+00
    2.0150851380374583e-02 -1.7849532557956804e+00
    2.0300624116106052e-02 -1.8621208848319097e+00
    2.0551044711366200e-02 -1.9368191967467681e+00
    2.0255444613400307e-02 -1.9171317975569448e+00
    2.0293570029874895e-02 -1.9577529860070786e+00
    1.9927127624346921e-02 -1.9629352933142190e+00
    1.9284658067653938e-02 -1.9066609945184443e+00
    1.8943605011870247e-02 -1.8738023843843701e+00
    1.9422433382981854e-02 -1.9691698936700466e+00
    1.9755492419292305e-02 -2.0184276402483765e+00
    1.9669347218945730e-02 -2.0152140287047127e+00
    1.9286462415996516e-02 -1.9451931496951940e+00
    1.9391010795313145e-02 -1.9308378647037665e+00
    1.9261395171628622e-02 -1.9321587031539962e+00
    1.9159835566266690e-02 -1.9339459024700441e+00
    1.9037614383965239e-02 -1.9443245372259952e+00
    1.9102275281220726e-02 -1.9650380339005753e+00
    1.9271622169851423e-02 -1.9991023065623719e+00
    1.9540249713903477e-02 -2.0206394590513823e+00
    1.9488059938185209e-02 -2.0241007708524181e+00
    1.9340552957400760e-02 -1.9983406564223456e+00
    1.9217499920587237e-02 -1.9949075201655049e+00
    1.9249354050733480e-02 -2.0331036502788904e+00
    1.9000090585552260e-02 -2.0427256480671585e+00
    1.9081288907602065e-02 -2.0542742171661588e+00
    1.9019902219605155e-02 -2.0512316138086675e+00
    1.8995164296824317e-02 -2.0689619293756940e+00
    1.8933393621336014e-02 -2.0747126669379905e+00
    1.8951910035900139e-02 -2.0754495115451097e+00
    1.8995320066110054e-02 -2.0862473686244734e+00
    1.9240536455495748e-02 -2.1185361134718868e+00
    1.9130980873221605e-02 -2.1244084669672900e+00
    1.9347710121638391e-02 -2.1065918696645256e+00
    1.9743350581738928e-02 -2.0911124897397464e+00
    1.9547026225437424e-02 -2.0768715364527264e+00
    1.9319804112035058e-02 -2.0462526616616223e+00
    1.9353413284776459e-02 -2.0358471224679056e+00
    1.9663138871095272e-02 -2.0642944143251554e+00
    1.9410926633394093e-02 -2.0905347405453694e+00
    1.8925725635563131e-02 -2.0782812463552762e+00
    1.8774266936591399e-02 -2.0760499040905787e+00
    1.8856193060466490e-02 -2.0982871652797512e+00
    1.8968582760645364e-02 -2.1058360145468735e+00
    1.9142655696543900e-02 -2.0650139832646732e+00
    1.8958748584477946e-02 -2.0224460492816672e+00
    1.9070179526580303e-02 -2.0353082512913887e+00
    1.8899849429768561e-02 -1.9592485957166330e+00
    1.8588018896122001e-02 -2.0312691331199684e+00
    1.8217742315389175e-02 -2.0363502532423365e+00
    1.8392665950980793e-02 -2.0497372156962346e+00
    1.8647537161906983e-02 -2.0433886460485118e+00
    1.8747833942619540e-02 -2.0814356547658281e+00
    1.9231214203584493e-02 -2.1060364918175427e+00
    1.8847498098354166e-02 -2.0954991067533770e+00
    1.8788333326281027e-02 -2.0550807094558867e+00
    1.8674689151703970e-02 -2.0281136843503962e+00
    1.8465441096898211e-02 -1.9703464988622068e+00
    1.8705984320971269e-02 -1.9059910047044191e+00
    1.8462188258668136e-02 -1.8402395944421313e+00
    1.8120718532076675e-02 -1.8442979037789176e+00
    1.8426245842757961e-02 -1.8568630469724727e+00
    1.8672898609809120e-02 -1.8693056852626528e+00
    1.8835070337040728e-02 -1.8615684574592242e+00
    1.8885915413022949e-02 -1.8328995521013920e+00
    1.8850241517884215e-02 -1.8145499533863316e+00
    1.8245111779778618e-02 -1.8071990548686401e+00
    1.7864347372039100e-02 -1.7734424845696997e+00
    1.7367770684870165e-02 -1.7554276858702009e+00
    1.7005691126214809e-02 -1.7346771181189458e+00
    1.7040261100035026e-02 -1.7412048614944882e+00
    1.7603824053950563e-02 -1.7890886412103051e+00
    1.7500196156923012e-02 -1.7499201827595914e+00
    1.7045332831905544e-02 -1.8161995829359356e+00
    1.6977775915560017e-02 -1.8084225289147935e+00
    1.7198079593452372e-02 -1.8281754040562523e+00
    1.7445932861974364e-02 -1.8537294912033100e+00
    1.7827803284676980e-02 -1.8915704462389655e+00
    1.8024000449660387e-02 -1.8777731377555278e+00
    1.7766215916400475e-02 -1.8489987326176562e+00
    1.6518112103201244e-02 -1.8353875016488836e+00
    1.5629689264214722e-02 -1.8033642039114111e+00
    1.6024584148105515e-02 -1.8291698609968170e+00
    1.6137523474831803e-02 -1.8423366998852013e+00
    1.5757342653389413e-02 -1.8306271888287120e+00
    1.7462211560886329e-02 -1.9116160803613460e+00
    1.7638363888902647e-02 -1.8991306573562794e+00
    1.7176936798422224e-02 -1.8690654353783183e+00
    1.6717820636641758e-02 -1.8430447375725003e+00
    1.6560328024888622e-02 -1.8310453600246168e+00
    1.6671971092334006e-02 -1.8450946189572828e+00
    1.6546401327945912e-02 -1.7624737823579659e+00
    1.6265074630824692e-02 -1.7587536096546859e+00
    1.6192124717147285e-02 -1.7894137826620153e+00
    1.6351661629785377e-02 -1.8314790097043132e+00
    1.6165502401023300e-02 -1.8721672468185109e+00
    1.6226571675360370e-02 -1.8454037423523477e+00
    1.5906148497131886e-02 -1.8503550246038536e+00
    1.5609164590336150e-02 -1.8193545591258853e+00
    1.5583003883986242e-02 -1.8256020288858654e+00
    1.5537050620377085e-02 -1.8170404143137588e+00
    1.5643880625970805e-02 -1.5001237120710755e+00
    2.3723714411458565e-02 -2.2302987423408718e+00
    2.3567342051954585e-02 -2.2494760177885516e+00
    2.3414181363658484e-02 -2.2936585277888404e+00
    2.3555079974811117e-02 -2.3684900586035926e+00
    2.3522659319472079e-02 -2.4005141138468069e+00
    2.3495948542531026e-02 -2.4000577437364932e+00
    2.3537699107597915e-02 -2.3730280282114626e+00
    2.3191234419301904e-02 -2.3475854114447885e+00
    2.3371518057956734e-02 -2.3949166373593731e+00
    2.4029371540860722e-02 -2.4677891511423726e+00
    2.4657264096947795e-02 -2.5130795646082360e+00
    2.3438572218278639e-02 -2.4322845624695515e+00
    2.4013164012869386e-02 -2.4324243637581557e+00
    2.3721673245260429e-02 -2.3729760179321313e+00
    2.2831175945817479e-02 -2.3307257853324010e+00
    2.2442187237153469e-02 -2.3163907576711926e+00
    2.2669382019263044e-02 -2.3067384237669422e+00
    2.3016793090096948e-02 -2.2906940213985121e+00
    2.3292595923068000e-02 -2.2926002225869713e+00
    2.4274142331433924e-02 -2.3647979796293526e+00
    2.4187994851084152e-02 -2.3477472502333554e+00
    2.4300048406256915e-02 -2.3669075558435360e+00
    2.4788161992916429e-02 -2.4427606909383099e+00
    2.4679307260334366e-02 -2.4647055892891885e+00
    2.4317410999324614e-02 -2.4358861131709828e+00
    2.4193537440532206e-02 -2.3980469355118430e+00
    2.4080747599590710e-02 -2.3674384983847618e+00
    2.3709653299474113e-02 -2.3413282633230685e+00
    2.2963987073170784e-02 -2.3115340624334864e+00
    2.3226152089532697e-02 -2.3245947105518092e+00
    2.3136697076878942e-02 -2.3545533030907881e+00
    2.2415916523925591e-02 -2.3250145235469413e+00
    2.1928161951381035e-02 -2.2799058837972814e+00
    2.2148249900951895e-02 -2.2878135409051445e+00
    2.2610507111500575e-02 -2.2886715010874017e+00
    2.2589558006405344e-02 -2.2830855557837402e+00
    2.3393885780815558e-02 -2.3042977494103325e+00
    2.3638600138643197e-02 -2.2749466428882865e+00
    2.3709829070450425e-02 -2.2428690011018699e+00
    2.3732091466678037e-02 -2.2397161321677399e+00
    2.4068366222308166e-02 -2.2780161621091444e+00
    2.4260404951408212e-02 -2.2774455148134458e+00
    2.4594509609852152e-02 -2.2675858377219935e+00
    2.4694656478963573e-02 -2.3170883925772978e+00
    2.3691348071960043e-02 -2.2802922519261539e+00
    2.2844331623212553e-02 -2.3076668859607725e+00
    2.2171889402166908e-02 -2.2229838658558934e+00
    2.1910544011485202e-02 -2.1809705712341438e+00
    2.1888714916971291e-02 -2.1984478044733038e+00
    2.1775545975405798e-02 -2.1806477148666317e+00
    2.1703045651110663e-02 -2.1552604084665465e+00
    2.2336890271476423e-02 -2.2296277743710102e+00
    2.4095966620362886e-02 -2.4565564151657457e+00
    2.4348084679032853e-02 -2.5135247189394767e+00
    2.3717319426567431e-02 -2.4736086101935895e+00
    2.3539823054187514e-02 -2.4752926435445928e+00
    2.4469813164190363e-02 -2.5552880462764471e+00
    2.4395540730895383e-02 -2.5236909664057516e+00
    2.4495306108093945e-02 -2.4946242425083858e+00
    2.4518659731858912e-02 -2.4347307734869217e+00
    2.4737231132730818e-02 -2.3484908806636322e+00
    2.3980599120262468e-02 -2.2277431569107460e+00
    2.3345444797493630e-02 -2.1247007657173467e+00
    2.2761460974847266e-02 -2.0500834055299935e+00
    2.2202027923321491e-02 -1.9603381473205455e+00
    2.1807397783941283e-02 -1.9029432679873308e+00
    2.1235554777926949e-02 -1.8652297801816629e+00
    2.0922562640959628e-02 -1.8245425648491385e+00
    2.0365471216537818e-02 -1.7787387701171555e+00
    2.0663782563112770e-02 -1.7660489620133086e+00
    2.0489247880386776e-02 -1.7519471099542079e+00
    2.0721180230953120e-02 -1.7642436690956391e+00
    2.0583473815078759e-02 -1.7646820249757011e+00
    2.0712715809579844e-02 -1.7823527325914019e+00
    2.1384676720419472e-02 -1.8497745363162843e+00
    2.1824677940897468e-02 -1.9128834199788882e+00
    2.1939814565534968e-02 -1.9110077118730175e+00
    2.2061435636343798e-02 -1.9088155788082006e+00
    2.1459259140114210e-02 -1.8389121951772869e+00
    2.1530057468091116e-02 -1.8057112402641646e+00
    2.1115485366839711e-02 -1.7978156148982560e+00
    2.0374333878466076e-02 -1.7594857989704880e+00
    2.0950746762853335e-02 -1.8027165282764257e+00
    2.0475871982131064e-02 -1.7511524151990725e+00
    2.0014396857786158e-02 -1.7054313049785170e+00
    1.9305305839212774e-02 -1.7149912317959755e+00
    1.8770991126733846e-02 -1.7538078300455193e+00
    1.8145420024101938e-02 -1.7614460290442138e+00
    1.7675509866765530e-02 -1.7064901344095449e+00
    1.7810995247577094e-02 -1.6837462439158390e+00
    1.7817071747487822e-02 -1.6936341496333596e+00
    1.7218312040770935e-02 -1.6691979547706459e+00
    1.7282705560231721e-02 -1.7286633447859046e+00
    1.7694141213328872e-02 -1.8309414760065081e+00
    1.8449358993827474e-02 -1.9145402992230964e+00
    1.8677005374804840e-02 -1.9493063166465348e+00
    1.8690494299941508e-02 -1.9484840307689022e+00
    1.8670384312026264e-02 -1.9366280454565425e+00
    1.8379793153202279e-02 -1.9180776184367401e+00
    1.8614753928225210e-02 -1.9855384971282493e+00
    1.8517408339820192e-02 -2.0286031261367792e+00
    1.8843458438069317e-02 -2.0877695428542711e+00
    1.9554034262586239e-02 -2.1787193857347509e+00
    2.0129566980321943e-02 -2.2995742824224599e+00
    2.0323774550831817e-02 -2.3234924303254942e+00
    2.1835731504349448e-02 -2.5024244570609566e+00
    2.3240983516074492e-02 -2.6781271970994704e+00
    2.2275014931661008e-02 -2.5661829701952192e+00
    2.2357804575575499e-02 -2.6007462106577113e+00
    2.2659232859750043e-02 -2.6448217081695744e+00
    2.2335964243022158e-02 -2.6064547364953925e+00
    2.2261639912182756e-02 -2.5822237432227899e+00
    2.1898029054016801e-02 -2.5001079307466680e+00
    2.1456355365333617e-02 -2.4121332230596075e+00
    2.0601661332719658e-02 -2.3189745037642564e+00
    2.0662866144717421e-02 -2.3188197115017828e+00
    1.9644617078073134e-02 -2.1533179128987894e+00
    1.8982365930176541e-02 -2.0506347922184465e+00
    1.8880479294883578e-02 -2.0270769133870461e+00
    1.8771607906409422e-02 -2.0127216636468876e+00
    1.9144709177937119e-02 -2.0899278263392382e+00
    1.9767049503106933e-02 -2.2122248526289616e+00
    1.9844063041186560e-02 -2.2436193775941553e+00
    1.9445085301674003e-02 -2.1954164206225233e+00
    1.9371255630473313e-02 -2.1921437408644149e+00
    2.0051882099664523e-02 -2.3044853365336038e+00
    2.0160926314473242e-02 -2.3343145252064530e+00
    1.9907250565738794e-02 -2.2803981741810215e+00
    2.0334363517289941e-02 -2.3520850709374352e+00
    2.0590362464429680e-02 -2.3895349621362283e+00
    2.1111249815440467e-02 -2.4838105109563964e+00
    2.1134366665851792e-02 -2.5225547758497080e+00
    2.1334959632534137e-02 -2.5754690474592064e+00
    2.1487029470172021e-02 -2.5923612714183673e+00
    2.1754390029552841e-02 -2.6521815162733828e+00
    2.2248659951681175e-02 -2.7673034943309807e+00
    2.2259256866771923e-02 -2.7729216295680366e+00
    2.2031836975509079e-02 -2.7249376550163729e+00
    2.2241998736852061e-02 -2.7998379659940760e+00
    2.2178121014695837e-02 -2.7902848501614201e+00
    2.2262385037997448e-02 -2.7781179692587386e+00
    2.1704207405307176e-02 -2.6654246526040302e+00
    2.1828708235762474e-02 -2.6933649320898745e+00
    2.2784055974111733e-02 -2.8619881220208079e+00
    2.1247282406252909e-02 -2.6002569076606896e+00
    2.0700206976617792e-02 -2.4815549261344247e+00
    2.0594372054360741e-02 -2.4451136275450116e+00
    2.1628668450423764e-02 -2.6071147794076146e+00
    2.3343715923300846e-02 -2.9252594016386375e+00
    2.3858316715787670e-02 -3.0552201257978551e+00
    2.4521125690914455e-02 -3.1361962460368429e+00
    2.5048091109496361e-02 -3.1445316651381940e+00
    2.4333386018412829e-02 -3.0456827306796379e+00
    2.3532228209809332e-02 -2.9527598169626668e+00
    2.3516340699606810e-02 -2.9100135460041860e+00
    2.3380321823650251e-02 -2.8202513199778116e+00
    2.3414938909408930e-02 -2.7048245623135965e+00
    2.3748187313467100e-02 -2.7302319437539393e+00
    2.3314060919220114e-02 -2.6813819382207589e+00
    2.3220662696788727e-02 -2.6734107285513065e+00
    2.3110468511786525e-02 -2.7178436207781678e+00
    2.3020705580325842e-02 -2.7079412933493514e+00
    2.2963181962649640e-02 -2.6891712695009757e+00
    2.2336799786152165e-02 -2.5815502525575069e+00
    2.2073319657965669e-02 -2.5228801036343036e+00
    2.2116658047899210e-02 -2.5123769565434597e+00
    2.1977106456589485e-02 -2.4745472650581468e+00
    2.2014151564726761e-02 -2.3996676009618345e+00
    2.2145032155659796e-02 -2.3755579948798689e+00
    2.1990761868979924e-02 -2.3636320583834842e+00
    2.1712989962797098e-02 -2.3368605447460378e+00
    2.1413867355714915e-02 -2.2862953493252216e+00
    2.1273819098950975e-02 -2.1780281042272591e+00
    2.1035601013456719e-02 -2.0693772496988050e+00
    2.1642787711957545e-02 -2.1779284839004549e+00
    2.2014033603954767e-02 -2.2691965775167464e+00
    2.2212006391307219e-02 -2.2661294702404113e+00
    2.2389895473860198e-02 -2.2499300644925651e+00
    2.2383624525149762e-02 -2.2252629449803716e+00
    2.3364922425394490e-02 -2.3781773882302097e+00
    2.4192921891622192e-02 -2.5575767313381963e+00
    2.3633739783999557e-02 -2.4921510037002714e+00
    2.3347406186557784e-02 -2.4534674853431033e+00
    2.2957006597097877e-02 -2.3863547482608278e+00
    2.2687173838218010e-02 -2.3177010546088628e+00
    2.2171951331622527e-02 -2.3278029358279606e+00
    2.2278484582356418e-02 -2.3526586048163431e+00
    2.2006987124095777e-02 -2.3051068615494641e+00
    2.2103200392932312e-02 -2.2500053309078143e+00
    2.1742608623260971e-02 -2.1709253485032103e+00
    2.0970940244068953e-02 -2.0978089428243067e+00
    2.0862373877295188e-02 -2.0555365079896357e+00
    2.2279438467199854e-02 -2.1117363210785678e+00
    2.3262357416690308e-02 -2.1426481595566282e+00
    2.3172546094758103e-02 -2.1112032763036717e+00
    2.3043728292656936e-02 -2.1075846268573790e+00
    2.3127656354660828e-02 -2.0793865577054143e+00
    2.3449897127504320e-02 -2.0481353332045251e+00
    2.4182265010781245e-02 -2.0777512016649657e+00
    2.4154701511412333e-02 -2.0556199956700794e+00
    2.4611734709046006e-02 -2.0740980068441495e+00
    2.6156112624752568e-02 -2.1541639346351618e+00
    2.5675106627864402e-02 -2.1237397857298292e+00
    2.4509238451911258e-02 -2.0317601648487797e+00
    2.4041971397441960e-02 -2.0326393999655474e+00
    2.3867089149662849e-02 -2.0482301961165206e+00
    2.5293769394857262e-02 -2.1041254415346886e+00
    2.4922417469792353e-02 -2.1032537879478741e+00
    2.4128748417398149e-02 -2.1066042510326137e+00
    2.3966094332330053e-02 -2.1057481974724541e+00
    2.4855275433285657e-02 -2.1519584491614023e+00
    2.4479144284612755e-02 -2.1298246388083810e+00
    2.2528016286500092e-02 -1.9801614315463432e+00
    2.1796997784939001e-02 -1.9663121240424801e+00
    2.1763886430590018e-02 -1.9397063781263353e+00
    2.1788840735025374e-02 -1.9020667559825559e+00
    2.1545038591432045e-02 -1.8668286279507877e+00
    2.1360725893333252e-02 -1.8763455813121142e+00
    2.0527303208977249e-02 -1.8193488793002051e+00
    2.0314878614744160e-02 -1.7768593261100660e+00
    2.0278210756811306e-02 -1.7693891056383590e+00
    2.0393212893360657e-02 -1.7805824007515523e+00
    2.0204592028113602e-02 -1.7746749327420919e+00
    2.0726952219379511e-02 -1.8951029267855404e+00
    2.0529072672754955e-02 -1.9503785463700885e+00
    1.9546079210850647e-02 -1.8870851019930353e+00
    1.9503358808723455e-02 -1.9017991129279088e+00
    1.9722111582305326e-02 -1.9793828351695526e+00
    1.9796181389511763e-02 -2.0316955934019942e+00
    1.9625424322816162e-02 -2.0178504462822797e+00
    1.9178306610427669e-02 -1.9777628692003535e+00
    1.9204844320314308e-02 -1.9802813336651366e+00
    1.9076172362826379e-02 -1.9663631761727054e+00
    1.9150049306087408e-02 -1.9656002313322103e+00
    1.9218617786028194e-02 -1.9700175197598560e+00
    1.9250409084939347e-02 -1.9790733067209805e+00
    1.9355444520906043e-02 -2.0093370843265586e+00
    1.9716718163803295e-02 -2.0123375475931740e+00
    1.9657707232813799e-02 -2.0060913614123219e+00
    1.9483786431720350e-02 -1.9834715994155312e+00
    1.9326429279169752e-02 -1.9736017808779431e+00
    1.9343257108270492e-02 -1.9852116656061924e+00
    1.9070472496305505e-02 -2.0038082265578279e+00
    1.8949169548899612e-02 -2.0173328968052955e+00
    1.8872797595163103e-02 -2.0219629059908835e+00
    1.9029604441090572e-02 -2.0567109981728686e+00
    1.8824348099491926e-02 -2.0454365514470658e+00
    1.8767678191023492e-02 -2.0426911558366250e+00
    1.8947657061511584e-02 -2.0745531339507286e+00
    1.9131024725241263e-02 -2.0863686850925047e+00
    1.9401829476537978e-02 -2.0843738167180690e+00
    1.9599484401040000e-02 -2.0561640908000145e+00
    1.9727086360470297e-02 -2.0308811236668256e+00
    1.9524848194347254e-02 -2.0149421463291430e+00
    1.9329521872817741e-02 -2.0124668113495017e+00
    1.9432854864255614e-02 -2.0359227888750526e+00
    1.9660914029192435e-02 -2.0597041640355123e+00
    1.9477933272769008e-02 -2.0654356174414090e+00
    1.9203616943515509e-02 -2.0521683379184070e+00
    1.9128796000441428e-02 -2.0516720573882545e+00
    1.9167258542062110e-02 -2.0834592225465354e+00
    1.9273104837985854e-02 -2.0901463184240683e+00
    1.9434046160269929e-02 -2.0199261727830558e+00
    1.9279964318620973e-02 -1.9927376756820121e+00
    1.9202067967771866e-02 -2.0280002237780876e+00
    1.9176445024520161e-02 -1.9923890552180434e+00
    1.8994117821293732e-02 -2.0474795642362769e+00
    1.8665928445080211e-02 -2.0556914264260779e+00
    1.8767062865534860e-02 -2.0467827937723957e+00
    1.9008212626143266e-02 -2.0254546567652887e+00
    1.9021747911496929e-02 -2.0801794434805760e+00
    1.9094183478708251e-02 -2.1036148730235964e+00
    1.8966396555133606e-02 -2.0775747681046637e+00
    1.8743505968591707e-02 -2.0323924312761599e+00
    1.8700853333928000e-02 -2.0008850518818080e+00
    1.8630904539952461e-02 -1.9444948039453795e+00
    1.8721119659612581e-02 -1.8371162365975504e+00
    1.8233794880878489e-02 -1.8653379365353249e+00
    1.8065337006123696e-02 -1.8329131983997207e+00
    1.8647144882969206e-02 -1.8426769534352296e+00
    1.9207626567218906e-02 -1.8296355647694598e+00
    1.9219974564076259e-02 -1.8179256623191902e+00
    1.9266144050456215e-02 -1.7919703301475469e+00
    1.9206277891598966e-02 -1.7692692241846253e+00
    1.8654296451777130e-02 -1.7973838592570262e+00
    1.7920393409855833e-02 -1.7806354542702205e+00
    1.7288825011111977e-02 -1.7608078882055804e+00
    1.7017037014225554e-02 -1.7423125397519572e+00
    1.7178114916968096e-02 -1.7520701186050813e+00
    1.7883502048205536e-02 -1.7722956973000055e+00
    1.7813047305355934e-02 -1.7726006278750217e+00
    1.7372354339059488e-02 -1.8446281698201348e+00
    1.7262589540218799e-02 -1.8339539728580174e+00
    1.7404833248191018e-02 -1.8529225032463357e+00
    1.7362148583990739e-02 -1.8662336756360045e+00
    1.7344960197686103e-02 -1.8920789252009971e+00
    1.8368359989992464e-02 -1.8590658892144076e+00
    1.8176992440453357e-02 -1.8110894286124437e+00
    1.6719211545799445e-02 -1.8376883372357402e+00
    1.5599664265962486e-02 -1.7992794579490823e+00
    1.5482760387378738e-02 -1.7967919370011973e+00
    1.5640892843394844e-02 -1.8083004975988537e+00
    1.5517188182577293e-02 -1.8044902871182356e+00
    1.7673457298258772e-02 -1.9044154412583953e+00
    1.7901881992289002e-02 -1.8821387749165666e+00
    1.7367728319302077e-02 -1.8510445898492520e+00
    1.6893102717525948e-02 -1.8364530357637725e+00
    1.6642786776095868e-02 -1.8280588292925302e+00
    1.6789849346122220e-02 -1.8469788249447290e+00
    1.6731981273021952e-02 -1.8020153694893812e+00
    1.6379699363767174e-02 -1.7658432711824907e+00
    1.6245225353281934e-02 -1.7937128652859535e+00
    1.6113425435949361e-02 -1.8680587079267656e+00
    1.5978714419108399e-02 -1.8802225887484940e+00
    1.5901615578247017e-02 -1.8791914909770437e+00
    1.5540264170790708e-02 -1.8695114391372252e+00
    1.5474128777341400e-02 -1.8205840033659566e+00
    1.5504749541091458e-02 -1.8255961632956721e+00
    1.5492750356861941e-02 -1.8261199213244372e+00
    1.5658252187567851e-02 -1.5649355453370368e+00
    2.4163351662098823e-02 -2.2915369465459738e+00
    2.3882145843866231e-02 -2.2827803382463725e+00
    2.3872047057359458e-02 -2.3073147300723962e+00
    2.4176118177207381e-02 -2.3787377186062511e+00
    2.4210604072010412e-02 -2.4110185089211731e+00
    2.3955967056891313e-02 -2.4112497523456229e+00
    2.3201625582249700e-02 -2.3543058595079396e+00
    2.2554240761580510e-02 -2.3189860273952325e+00
    2.2979691040114322e-02 -2.3747421627136323e+00
    2.3924584427298737e-02 -2.4428903792215091e+00
    2.4728669929839669e-02 -2.4881819078836971e+00
    2.4234984891306797e-02 -2.4336881986872521e+00
    2.3738932002104089e-02 -2.3517728317539026e+00
    2.3541391173122657e-02 -2.3049162084957366e+00
    2.3000552789540205e-02 -2.3077656915368774e+00
    2.2895471467504539e-02 -2.3141337609968082e+00
    2.3089872016566985e-02 -2.3104303186577337e+00
    2.3096811346216842e-02 -2.2406531643483318e+00
    2.3342448517926901e-02 -2.2368962312690632e+00
    2.4604851628080217e-02 -2.3526991366418293e+00
    2.4875448970135730e-02 -2.3132754164443838e+00
    2.4799192470484802e-02 -2.3167518329529040e+00
    2.5725553582731701e-02 -2.4300416381415597e+00
    2.5835868127114359e-02 -2.4660042537920122e+00
    2.5312359358314412e-02 -2.4889527900851660e+00
    2.5098052804577258e-02 -2.4469175458735295e+00
    2.4900770928616041e-02 -2.4107058855266406e+00
    2.4115222769026983e-02 -2.3561668791828865e+00
    2.3827038924540019e-02 -2.3442557160075852e+00
    2.4055310510001520e-02 -2.3766920139682752e+00
    2.3752099809979343e-02 -2.3750750258853777e+00
    2.3148657155787501e-02 -2.3430123782568097e+00
    2.2209903975385203e-02 -2.2705841035744658e+00
    2.2308343637460846e-02 -2.2719019963514104e+00
    2.2991491946601661e-02 -2.2903967517032213e+00
    2.3106153441062330e-02 -2.2730678447645065e+00
    2.4368355715846425e-02 -2.3122246616740645e+00
    2.4676679517574063e-02 -2.2746009762136592e+00
    2.4869865457304689e-02 -2.2237333676227493e+00
    2.5074842277532500e-02 -2.2380721439645344e+00
    2.5247707800736149e-02 -2.2535013741009324e+00
    2.4487858180351336e-02 -2.1916633071414444e+00
    2.4223185728498336e-02 -2.1699019670199133e+00
    2.4461231676141285e-02 -2.2122126397110273e+00
    2.3354795873301169e-02 -2.2232173298936804e+00
    2.2411506424417853e-02 -2.2560492006898358e+00
    2.1897526684816020e-02 -2.1982130765189174e+00
    2.1977136612313923e-02 -2.1818551592440976e+00
    2.1798270157973972e-02 -2.1800747234128290e+00
    2.1531661341277861e-02 -2.1436236933060835e+00
    2.1687253754875350e-02 -2.1246115297815953e+00
    2.2757397973225717e-02 -2.2246649552803888e+00
    2.4614783005613695e-02 -2.4364439473908872e+00
    2.4675775090950824e-02 -2.4956181626075264e+00
    2.2814363418009964e-02 -2.3373056067621460e+00
    2.2947038806840257e-02 -2.3666741387600250e+00
    2.4302836368673236e-02 -2.5029159773782448e+00
    2.4962893702633673e-02 -2.5391234265031137e+00
    2.4805752391139847e-02 -2.5014346218065340e+00
    2.4878642551636014e-02 -2.4757076457349614e+00
    2.4946473565459055e-02 -2.4101695256083282e+00
    2.4575347957820608e-02 -2.3004480545744008e+00
    2.4632691761464098e-02 -2.2405952409618108e+00
    2.3450703317467216e-02 -2.1210894665384128e+00
    2.2793499293780030e-02 -2.0292689797399959e+00
    2.2592166364253052e-02 -1.9845164317690465e+00
    2.2211874077320507e-02 -1.9513636192246007e+00
    2.2003840177115604e-02 -1.9174596408887614e+00
    2.1272124702592196e-02 -1.8689253652055859e+00
    2.0804904731778418e-02 -1.8304769873385729e+00
    2.0537967133032787e-02 -1.8130590644655138e+00
    2.1244429156331974e-02 -1.8517658391323228e+00
    2.1375505841264721e-02 -1.8797085449162163e+00
    2.1607052771873109e-02 -1.9020344806513072e+00
    2.2038837899589582e-02 -1.9498110507642579e+00
    2.3176663757679884e-02 -2.0423118080560076e+00
    2.3542490538268734e-02 -2.0522096013529483e+00
    2.2998059597192665e-02 -2.0030525884395813e+00
    2.1933284456528632e-02 -1.9186639062086071e+00
    2.1989937954139310e-02 -1.8985062909837886e+00
    2.2239850683990946e-02 -1.9395424326623694e+00
    2.1503039248984491e-02 -1.9059512061599890e+00
    2.1753524602513584e-02 -1.9265465226101093e+00
    2.1056836159171748e-02 -1.8307483347025344e+00
    2.0314642201018265e-02 -1.7691052330398120e+00
    1.9620422775531571e-02 -1.7671758058961731e+00
    1.9047374647857784e-02 -1.7972713112328080e+00
    1.8567820778465631e-02 -1.8069865584861324e+00
    1.7949052532002446e-02 -1.7410580956042372e+00
    1.8060127481740917e-02 -1.6917003503635271e+00
    1.7943634154463692e-02 -1.6236949860453906e+00
    1.7227936026403920e-02 -1.5780202084185091e+00
    1.7684013389388697e-02 -1.7064068147272060e+00
    1.8120484861182343e-02 -1.8178140949377013e+00
    1.8700669544168266e-02 -1.9059807402459679e+00
    1.9179402959269488e-02 -1.9737349227175509e+00
    1.9256680001464539e-02 -1.9814686069688794e+00
    1.9373284743924368e-02 -1.9908251584012280e+00
    1.9181670497225009e-02 -2.0081901169424317e+00
    1.9196898095337138e-02 -2.0546134626242369e+00
    1.9053827009745505e-02 -2.0486111846898534e+00
    1.9375636313501646e-02 -2.0857432136113760e+00
    2.0216887952029965e-02 -2.1729708487985842e+00
    2.0828398283007629e-02 -2.2873368296248375e+00
    2.0642703080188330e-02 -2.2722220839345941e+00
    2.1906510819107064e-02 -2.4674697186248777e+00
    2.3343551660191156e-02 -2.7130247114159665e+00
    2.2656442014655526e-02 -2.6437235775851167e+00
    2.2527675984423595e-02 -2.6290821859094353e+00
    2.2570088103773762e-02 -2.5928671100579641e+00
    2.2165299696692568e-02 -2.4973743919625773e+00
    2.1983513737636715e-02 -2.4454160906559750e+00
    2.1487156935110101e-02 -2.3538203733461520e+00
    2.1014685987778552e-02 -2.2885709450440426e+00
    2.0647331521826219e-02 -2.2780107016523949e+00
    2.0944945273120043e-02 -2.3189386567728247e+00
    2.0142104119266372e-02 -2.1966337867340839e+00
    1.9121603021131497e-02 -2.0614391802440286e+00
    1.8995497081313737e-02 -2.0556149852880763e+00
    1.8929025772759338e-02 -2.0491745911839980e+00
    1.9155966984763861e-02 -2.0882180827822694e+00
    1.9676242379682529e-02 -2.1870814186007346e+00
    1.9778156069215239e-02 -2.2297623450305042e+00
    1.9356776517286244e-02 -2.1650994461323694e+00
    1.9207854767628266e-02 -2.1532441736665096e+00
    1.9940474577962879e-02 -2.2937210672207868e+00
    1.9966085555743519e-02 -2.3120953960886856e+00
    1.9718491469615258e-02 -2.2512691340366420e+00
    2.0168767356687711e-02 -2.3180331027902219e+00
    2.0465446119637125e-02 -2.3716661310006750e+00
    2.1051111300570826e-02 -2.4609466761888905e+00
    2.1142438452550021e-02 -2.4832754982449661e+00
    2.1197056957038204e-02 -2.5132965032924615e+00
    2.1377432426589692e-02 -2.5456149363435614e+00
    2.1733507724633241e-02 -2.6170353932281381e+00
    2.2442410010045755e-02 -2.7638593009530781e+00
    2.2297702263752404e-02 -2.7552865274550413e+00
    2.2156490719014595e-02 -2.7370819387091778e+00
    2.2410536748002315e-02 -2.8384982112867476e+00
    2.2501889144077102e-02 -2.8665616846554132e+00
    2.2561560267214176e-02 -2.8114780669348938e+00
    2.1963213768474439e-02 -2.6958596990929165e+00
    2.2356206238771915e-02 -2.7683588566351998e+00
    2.2962367165220460e-02 -2.8541178642406977e+00
    2.0328637022621294e-02 -2.4218798925586551e+00
    2.0398897005825686e-02 -2.4070698466874312e+00
    2.2297019611381523e-02 -2.6973059349200228e+00
    2.3499516467014009e-02 -2.9073975628933524e+00
    2.5028388771642991e-02 -3.1495951961042556e+00
    2.5698948670810969e-02 -3.3099077753974031e+00
    2.5367552935606056e-02 -3.2509383889920147e+00
    2.5536663201453470e-02 -3.1951298884045847e+00
    2.4307516093549392e-02 -3.0232473141352054e+00
    2.3805635352752205e-02 -2.9413485589826673e+00
    2.3378096799121777e-02 -2.8596991249334813e+00
    2.2742101567610667e-02 -2.7339624145881052e+00
    2.3007944439899095e-02 -2.6371549044663891e+00
    2.3996188280168678e-02 -2.7546533409802727e+00
    2.3461011888758314e-02 -2.6928176202545835e+00
    2.3060651743637268e-02 -2.6129290742705367e+00
    2.3522561628558217e-02 -2.7184596791186029e+00
    2.3195385421749010e-02 -2.7362647279906418e+00
    2.2804133224233494e-02 -2.6993097014798657e+00
    2.2627366320205840e-02 -2.6575584613919032e+00
    2.2326498308573521e-02 -2.5518172725867325e+00
    2.2639928173239128e-02 -2.5202356407392101e+00
    2.2202165184476343e-02 -2.4580067535200087e+00
    2.2219442415365841e-02 -2.4123244640500596e+00
    2.2553174854609417e-02 -2.4339488817525639e+00
    2.2195104220686150e-02 -2.3761372370805027e+00
    2.1889802452269104e-02 -2.3599943268852628e+00
    2.1058731062309891e-02 -2.2743429547294682e+00
    2.1048849338472744e-02 -2.1767619705087640e+00
    2.1493124223668399e-02 -2.1736143071424650e+00
    2.2390399885121356e-02 -2.3029035154571980e+00
    2.2084421882990299e-02 -2.2487211623015293e+00
    2.1966951041792870e-02 -2.1905793053096967e+00
    2.2552421810960191e-02 -2.2666465307617885e+00
    2.3081154393653117e-02 -2.3170331581083139e+00
    2.3715414254264426e-02 -2.3887889994295444e+00
    2.4727835922352084e-02 -2.5773148986342425e+00
    2.3995745792566997e-02 -2.4710164587754790e+00
    2.3670200734285971e-02 -2.4105947611439871e+00
    2.3361587085254893e-02 -2.3676172093164292e+00
    2.3337876857023709e-02 -2.3304726463760890e+00
    2.2713611634707847e-02 -2.3282742471691149e+00
    2.2754322720976907e-02 -2.3714917140390877e+00
    2.2476043848977313e-02 -2.3304847965908353e+00
    2.2252995940332480e-02 -2.2499549020353209e+00
    2.1722370182616593e-02 -2.1554515503932739e+00
    2.1187355133779128e-02 -2.0868340979776203e+00
    2.1209016701026259e-02 -2.0535389409215257e+00
    2.1937332968780060e-02 -2.1077289801254024e+00
    2.2489669012119108e-02 -2.1132621938774196e+00
    2.2626663037759513e-02 -2.0878239075750820e+00
    2.2538653883387740e-02 -2.0773979732745222e+00
    2.3443379056876955e-02 -2.0901903645483704e+00
    2.4473484516624240e-02 -2.1054149378761795e+00
    2.4984390640152360e-02 -2.1171431932229106e+00
    2.4698133292373647e-02 -2.0881149056279540e+00
    2.6087183511718539e-02 -2.1271430146401862e+00
    2.7174670738019189e-02 -2.1225579467928966e+00
    2.6417165639496122e-02 -2.1379892464146750e+00
    2.4573492889693047e-02 -2.0768790155351367e+00
    2.4444655931242502e-02 -2.0587678117545885e+00
    2.4683426927024806e-02 -2.0773347706993830e+00
    2.5320656743006601e-02 -2.1162889811910630e+00
    2.4909720509393409e-02 -2.0966624978758750e+00
    2.3810545466212533e-02 -2.0738173377930220e+00
    2.3815396262093350e-02 -2.0903422810046481e+00
    2.4630449340761962e-02 -2.1471874104279021e+00
    2.4455460374147569e-02 -2.1128961957345904e+00
    2.2690713923402217e-02 -1.9321916452842558e+00
    2.2445457428280347e-02 -1.9468883698870896e+00
    2.2215614627603301e-02 -1.9311175465210391e+00
    2.1942730324382858e-02 -1.9171213874888364e+00
    2.1848506043137966e-02 -1.9052890383527357e+00
    2.1476058696808027e-02 -1.9196667921487722e+00
    2.0808864277559260e-02 -1.8901779159394310e+00
    2.0609664703824151e-02 -1.8432768869482725e+00
    2.0526481189563749e-02 -1.7784563162480547e+00
    2.0517889405801369e-02 -1.7599919111328595e+00
    2.0579900391604566e-02 -1.8118497532267772e+00
    2.0918637287351813e-02 -1.8942063775484421e+00
    2.0881979149503807e-02 -1.9059551878274383e+00
    2.0147618534656721e-02 -1.8839168080957138e+00
    2.0059813226771531e-02 -1.9104692574269568e+00
    2.0121086706896555e-02 -1.9883292045815049e+00
    1.9869525695206572e-02 -2.0301913669142033e+00
    1.9833896160137487e-02 -2.0090835269484724e+00
    1.9643743046668775e-02 -1.9631465707264606e+00
    1.9489149574954793e-02 -1.9728334592465604e+00
    1.9193947126367072e-02 -1.9666161848282806e+00
    1.9173649679573680e-02 -1.9765200348665071e+00
    1.9120371675518229e-02 -1.9778720836618457e+00
    1.9268175988432001e-02 -1.9988543022544969e+00
    1.9472192166641047e-02 -2.0238909733202539e+00
    1.9787882105270192e-02 -2.0127424173212898e+00
    1.9775251439490819e-02 -2.0002217393512245e+00
    1.9380432261529548e-02 -1.9505964606859909e+00
    1.9291466736243830e-02 -1.9291466736243830e+00
    1.9396129941260071e-02 -1.9105187992141170e+00
    1.9313655543476579e-02 -1.9725168090567697e+00
    1.8859421328340106e-02 -1.9900975733518889e+00
    1.8878471975784464e-02 -2.0178512205025987e+00
    1.9037621400505734e-02 -2.0456789541270708e+00
    1.8978313974709355e-02 -2.0262585107884288e+00
    1.8960149528414297e-02 -2.0227032246903800e+00
    1.9044519626790747e-02 -2.0477186898715232e+00
    1.9368750834794085e-02 -2.0424127655849058e+00
    1.9398949857455966e-02 -1.9689934105317806e+00
    1.9372095785172693e-02 -1.9478862449443246e+00
    1.9410203234315165e-02 -1.9148827202125809e+00
    1.9248157603401608e-02 -1.9038177702273591e+00
    1.9293644998063832e-02 -1.9527141951733580e+00
    1.9510829226585161e-02 -2.0118325500231107e+00
    1.9693105779560256e-02 -2.0718042421269187e+00
    1.9533905657529663e-02 -2.0705939996981444e+00
    1.9291033907191217e-02 -2.0576737473846634e+00
    1.9322575027050648e-02 -2.0652099933741463e+00
    1.9350412481014653e-02 -2.0885252016440590e+00
    1.9437660245338606e-02 -2.0909842126420219e+00
    1.9593684834759782e-02 -2.0120265114693949e+00
    1.9489330362415937e-02 -1.9891297801140766e+00
    1.9237722531707923e-02 -1.9829063889074627e+00
    1.8929446951204791e-02 -1.9867315004696300e+00
    1.8577162678610058e-02 -2.0280772937887139e+00
    1.8543071194314250e-02 -2.0524861928206586e+00
    1.8823410988664503e-02 -2.0376342395229323e+00
    1.9062015504655375e-02 -2.0172161293988999e+00
    1.8867704327254427e-02 -2.0481107452965670e+00
    1.9024508121002440e-02 -2.0843726710073298e+00
    1.9029466958497207e-02 -2.0452352101530296e+00
    1.8875771469200515e-02 -2.0088754283499708e+00
    1.8596749623898262e-02 -1.9885842495554846e+00
    1.8724348655094987e-02 -1.9133943781925189e+00
    1.8779909863807957e-02 -1.8751099774812341e+00
    1.8318735940437487e-02 -1.8623701260354999e+00
    1.8121840720102672e-02 -1.8391609030822382e+00
    1.8626388208176629e-02 -1.8668720908649759e+00
    1.9303670822459193e-02 -1.8668623924379426e+00
    1.9432381415731753e-02 -1.8237731603696428e+00
    1.9368020765125019e-02 -1.8065081186380243e+00
    1.9122700509434570e-02 -1.7914493522702115e+00
    1.8651930220426598e-02 -1.7860282954820990e+00
    1.7943684885838085e-02 -1.7643943786040561e+00
    1.7392007501511441e-02 -1.7547152113882878e+00
    1.7141293457835119e-02 -1.7415943728011796e+00
    1.7458222731217360e-02 -1.7537578289086531e+00
    1.8000977063019667e-02 -1.7951883489211433e+00
    1.7897703575710584e-02 -1.8536326180571165e+00
    1.7586708064751433e-02 -1.8597943778474639e+00
    1.7438267289858148e-02 -1.8507351972003427e+00
    1.7383106223820236e-02 -1.8600911335977641e+00
    1.7389560375169550e-02 -1.8708598051354284e+00
    1.7244512305050481e-02 -1.8853346918964851e+00
    1.7307778107958739e-02 -1.8780906040102046e+00
    1.6338141290478232e-02 -1.8244876643355634e+00
    1.6469187055264831e-02 -1.8359400569562272e+00
    1.5768121975992297e-02 -1.8111838287878423e+00
    1.5254211393724397e-02 -1.7847427330657544e+00
    1.5226089391518160e-02 -1.7800682688629412e+00
    1.5690623523280833e-02 -1.8058481254975940e+00
    1.8287993798416301e-02 -1.8925995400247415e+00
    1.8116475639697916e-02 -1.8436601999013031e+00
    1.7672926247665491e-02 -1.8163952437160289e+00
    1.7255290723347652e-02 -1.8223939998044667e+00
    1.6856915027540029e-02 -1.8204510450480305e+00
    1.6972621619041551e-02 -1.8304393804035664e+00
    1.6658073543815041e-02 -1.8235858123220703e+00
    1.6282089238487053e-02 -1.8062942748946573e+00
    1.5917985025606127e-02 -1.8204386511102280e+00
    1.6025916718226712e-02 -1.8560925362746210e+00
    1.6165551497097079e-02 -1.8583954740952566e+00
    1.5854899070326636e-02 -1.8619597095714842e+00
    1.5348192723510744e-02 -1.8593114605566623e+00
    1.5225357443563702e-02 -1.8202087839205900e+00
    1.5295485661971446e-02 -1.8179901395612539e+00
    1.5370044462917952e-02 -1.8150625233936746e+00
    1.5593922750809411e-02 -1.5639109686053234e+00
    2.5488979930696060e-02 -2.5148644119121428e+00
    2.5119192681788458e-02 -2.4611099920725010e+00
    2.5171690619219790e-02 -2.4302123125101289e+00
    2.5597329419733809e-02 -2.4794504087933067e+00
    2.5724260955100966e-02 -2.5141080266402938e+00
    2.5332454740994367e-02 -2.4984133488305695e+00
    2.4569782816288695e-02 -2.4444141881432673e+00
    2.3777331432453780e-02 -2.3866496425325483e+00
    2.4668423312541606e-02 -2.4563302190471115e+00
    2.5533032690977682e-02 -2.5054288328021852e+00
    2.5903084825935237e-02 -2.5170145266655934e+00
    2.5563883909848768e-02 -2.4778084978301713e+00
    2.4799459336689228e-02 -2.4145655408721964e+00
    2.4600484234801510e-02 -2.3705921171717819e+00
    2.3701331781475515e-02 -2.3364665136852283e+00
    2.3571819058081325e-02 -2.3234313467022432e+00
    2.3575626192185839e-02 -2.2828171679956308e+00
    2.3309309664096507e-02 -2.1795528928524783e+00
    2.3307197019918419e-02 -2.1433351350419296e+00
    2.4577393954580945e-02 -2.2502279896824851e+00
    2.4909148700518101e-02 -2.2423895000625498e+00
    2.4949922465803916e-02 -2.2619372890020868e+00
    2.5738856922931600e-02 -2.3764569602138552e+00
    2.5732244890457865e-02 -2.4074269566265865e+00
    2.5051660243682577e-02 -2.4183392473873124e+00
    2.4510595296872127e-02 -2.3754387726065223e+00
    2.4220274636063237e-02 -2.3495042548949296e+00
    2.3458758331939125e-02 -2.2704345990127899e+00
    2.3480272887514992e-02 -2.2661131549280094e+00
    2.3736193523971789e-02 -2.3291139895397319e+00
    2.3504442022113662e-02 -2.3277410479854610e+00
    2.3374233651134016e-02 -2.3141819396080123e+00
    2.3464864842802684e-02 -2.3018232472215248e+00
    2.3580987726873618e-02 -2.3055774818411430e+00
    2.3852732500852597e-02 -2.3176453323697745e+00
    2.3484950921247860e-02 -2.2824436676587765e+00
    2.4385549949114155e-02 -2.3160730281215467e+00
    2.4916698401597551e-02 -2.2873812276966570e+00
    2.5031490993384340e-02 -2.2283715959337829e+00
    2.5075683132670241e-02 -2.2307384705012381e+00
    2.5207298375963059e-02 -2.2105081996284874e+00
    2.4432499052470455e-02 -2.1457564650797489e+00
    2.4049607291512978e-02 -2.1178685421088614e+00
    2.4176124335613263e-02 -2.1568949108965878e+00
    2.2975430003085086e-02 -2.2040747737050488e+00
    2.1336806597652715e-02 -2.1944178194551807e+00
    2.0755475658108938e-02 -2.1270824684392666e+00
    2.1841791519344601e-02 -2.1780981986137333e+00
    2.2161307090616318e-02 -2.2214192027991650e+00
    2.2213721911145998e-02 -2.2033235420617938e+00
    2.2709341106192056e-02 -2.2013867534814926e+00
    2.3955288914803589e-02 -2.2916772696508412e+00
    2.4921811555672566e-02 -2.4145836968598218e+00
    2.4791136380683518e-02 -2.4475612826747546e+00
    2.3476289744178890e-02 -2.3226854165646991e+00
    2.3573991165400852e-02 -2.3529789931965723e+00
    2.5249040072812659e-02 -2.5147183149791652e+00
    2.5549272762644151e-02 -2.5139903733151781e+00
    2.5714785440093420e-02 -2.5137663835045867e+00
    2.5752302493538964e-02 -2.5196286871519376e+00
    2.6144790339765845e-02 -2.5246063171836393e+00
    2.6059750795470949e-02 -2.4204474218952474e+00
    2.6019402393643264e-02 -2.3396764902374905e+00
    2.5178677710327994e-02 -2.2473400463155819e+00
    2.4274961747246537e-02 -2.1504030034165948e+00
    2.4322956647062893e-02 -2.1266003232102491e+00
    2.4633232195380408e-02 -2.1645053176224889e+00
    2.4534087829189175e-02 -2.1839520114767432e+00
    2.3951667288777685e-02 -2.1434020443082304e+00
    2.3416923256978008e-02 -2.0878315894801074e+00
    2.3411927188327381e-02 -2.0857898767782577e+00
    2.3297481473867881e-02 -2.0909489622796422e+00
    2.3341259525010156e-02 -2.0840031373636907e+00
    2.3281521725741629e-02 -2.0827702248397837e+00
    2.3525779976497865e-02 -2.1138447985700983e+00
    2.4248930666778842e-02 -2.1566392711766431e+00
    2.4416156411497091e-02 -2.1676275223275119e+00
    2.4371328247345191e-02 -2.1521544523877214e+00
    2.3922980475457423e-02 -2.1095719146539729e+00
    2.2911173994469548e-02 -2.0107158722646403e+00
    2.2160612295354935e-02 -1.9885372157985255e+00
    2.1551213714710568e-02 -1.9562624449216819e+00
    2.1923607543065764e-02 -1.9954219842748322e+00
    2.1512389633075345e-02 -1.9248699542140373e+00
    2.1011914626872897e-02 -1.8725675052414852e+00
    2.0161434267734358e-02 -1.8395017697231721e+00
    1.9437887259534301e-02 -1.8437277835833275e+00
    1.9190125950234480e-02 -1.8639500177230592e+00
    1.8610523168570085e-02 -1.8018370158661037e+00
    1.8686923909625328e-02 -1.7481829668862556e+00
    1.8535453298959021e-02 -1.6719821396265535e+00
    1.7744988623752650e-02 -1.6250779922593477e+00
    1.8067284802854699e-02 -1.7386681971928979e+00
    1.8471115502010711e-02 -1.8164662903909170e+00
    1.8960832566812191e-02 -1.8909121205266342e+00
    1.9569488192501962e-02 -2.0094306284937242e+00
    1.9671804827695136e-02 -2.0116655868685061e+00
    1.9705728308437438e-02 -2.0088646438067301e+00
    1.9380484431401463e-02 -2.0067610697605698e+00
    1.9353095029529244e-02 -2.0547268961464971e+00
    1.9270291272157687e-02 -2.0238185447418333e+00
    1.9500952772553874e-02 -2.0203430275837917e+00
    2.0533295289735354e-02 -2.1739626388007305e+00
    2.0823051804834139e-02 -2.2707774618760319e+00
    2.0829084988026342e-02 -2.2639795217099086e+00
    2.1735215178675448e-02 -2.3948255269595133e+00
    2.3115659996993897e-02 -2.6433282562471545e+00
    2.2954568145516135e-02 -2.6485137234715688e+00
    2.2970102539102696e-02 -2.6294241809960339e+00
    2.2636015827430710e-02 -2.5426933687971882e+00
    2.1905203789790769e-02 -2.4121861059655392e+00
    2.1551643502920482e-02 -2.3376186049474548e+00
    2.1229484491619981e-02 -2.2878388201849784e+00
    2.1205976879847550e-02 -2.3132588074783698e+00
    2.0945096703429714e-02 -2.3221685907615002e+00
    2.1082360618776878e-02 -2.3433762544609777e+00
    2.0486174458182675e-02 -2.2592991263257143e+00
    1.9649978593819395e-02 -2.1286732492600033e+00
    1.8849138493300974e-02 -2.0283172382081087e+00
    1.9065273702738739e-02 -2.0685821967471534e+00
    1.9443828374579405e-02 -2.1228020580542233e+00
    1.9807982060092624e-02 -2.2026250960117770e+00
    1.9850193026187474e-02 -2.2244622559971337e+00
    1.9541899333235486e-02 -2.1664860215346069e+00
    1.9305485507365980e-02 -2.1804229597467097e+00
    1.9773303043412606e-02 -2.2967365574800223e+00
    1.9847326207939969e-02 -2.3240542376104250e+00
    1.9680354413259157e-02 -2.2686081269102374e+00
    2.0397595498058536e-02 -2.3250940959207407e+00
    2.0655110596373170e-02 -2.3802667790661398e+00
    2.1141724711054334e-02 -2.4585663617110742e+00
    2.1043949717505540e-02 -2.4603485985063154e+00
    2.1273800915916609e-02 -2.5134512286680111e+00
    2.1273106731858716e-02 -2.5139735620223260e+00
    2.1603729225740359e-02 -2.5714575201706524e+00
    2.2269817594184543e-02 -2.7233709322706474e+00
    2.2198788274732633e-02 -2.7088828169115500e+00
    2.2224904548653373e-02 -2.7278544776136942e+00
    2.2373076120963332e-02 -2.8430332241212781e+00
    2.2409612611090143e-02 -2.8604087915235232e+00
    2.2601767897939197e-02 -2.7959414242837055e+00
    2.1784085723495338e-02 -2.6384736100440347e+00
    2.1823042424510507e-02 -2.6331484598119608e+00
    2.1907243930294616e-02 -2.6577470022707419e+00
    2.0855420558166703e-02 -2.4538298234006595e+00
    2.1802481895761623e-02 -2.5982116777369564e+00
    2.3343197479660321e-02 -2.8969438599473909e+00
    2.4386237436356963e-02 -3.0777925691693020e+00
    2.5165613294086016e-02 -3.2038971425033260e+00
    2.6303582102109580e-02 -3.3804586566341857e+00
    2.5200098606512660e-02 -3.1975488754581862e+00
    2.4518389456782540e-02 -3.0309465875637374e+00
    2.3868641497574634e-02 -2.8999043246740821e+00
    2.3199164787823270e-02 -2.8119760364695101e+00
    2.2590365019466405e-02 -2.7035276045739822e+00
    2.2141920244428886e-02 -2.5953853104691360e+00
    2.3239963938605342e-02 -2.6743124411850796e+00
    2.4119327448668376e-02 -2.7627593259383776e+00
    2.3415398114069876e-02 -2.6628363253017531e+00
    2.3289699875511220e-02 -2.6064614684542304e+00
    2.3818309907942686e-02 -2.7392409707197038e+00
    2.3502010183096448e-02 -2.7641568794891844e+00
    2.3044867651077688e-02 -2.7196871930712199e+00
    2.3508865863607464e-02 -2.7382485807042785e+00
    2.3218393637103651e-02 -2.6534930091858118e+00
    2.3251768410268599e-02 -2.5780398224885310e+00
    2.3187235357898541e-02 -2.5571831721409697e+00
    2.2856831367955743e-02 -2.4841219909446446e+00
    2.2929835518005894e-02 -2.4596157087751891e+00
    2.2827082991263913e-02 -2.3925636360218490e+00
    2.2169305717393291e-02 -2.3431444599713065e+00
    2.0929844855506488e-02 -2.2661313839007478e+00
    2.1016374743025944e-02 -2.2369303867108239e+00
    2.2097700679361978e-02 -2.3365807366075364e+00
    2.3093256909106151e-02 -2.4326646766751594e+00
    2.2442950093078784e-02 -2.2875231915894334e+00
    2.2491102217006984e-02 -2.2543496261944331e+00
    2.3066760586514985e-02 -2.3216170285768545e+00
    2.3227749175883071e-02 -2.3263382654732436e+00
    2.3473495004100411e-02 -2.2863984366778034e+00
    2.4478524908258182e-02 -2.4593963406405082e+00
    2.4373757961881480e-02 -2.4427767993728828e+00
    2.3893171567815449e-02 -2.4011279859088175e+00
    2.3501860156394310e-02 -2.3846376060959638e+00
    2.3530744991543364e-02 -2.4057512805558594e+00
    2.3160794829563701e-02 -2.3960895014584991e+00
    2.3570182075467398e-02 -2.4496918779798276e+00
    2.3061930618479887e-02 -2.3900546277333703e+00
    2.2592504571555441e-02 -2.2996859056784986e+00
    2.2356599613194961e-02 -2.2187654854754340e+00
    2.2348729401215493e-02 -2.1546206845444571e+00
    2.2420708895992403e-02 -2.1289482219876423e+00
    2.2716269072154106e-02 -2.1539153311142485e+00
    2.2369648641912990e-02 -2.1258792226399810e+00
    2.2534691834206432e-02 -2.0987992531040445e+00
    2.3394633297840695e-02 -2.1343615162694776e+00
    2.3898254805932963e-02 -2.1276236054213840e+00
    2.5283566283984042e-02 -2.1597337245080461e+00
    2.5939212543127033e-02 -2.1637135190093635e+00
    2.6225497858703001e-02 -2.1765673137617885e+00
    2.7127362335172572e-02 -2.1425992262570110e+00
    2.6582975683160717e-02 -1.9978012463702661e+00
    2.6863378553369292e-02 -2.1063330911164559e+00
    2.5290081954101575e-02 -2.0914610388747068e+00
    2.5197819793156322e-02 -2.1001523781011935e+00
    2.5134024085528159e-02 -2.0908366286148738e+00
    2.5266518117958037e-02 -2.1246844781010168e+00
    2.4656696189695876e-02 -2.1029640142245727e+00
    2.4104014416789929e-02 -2.1006100745722951e+00
    2.3725032872842163e-02 -2.0957561708754380e+00
    2.4606165498079140e-02 -2.1495442871191295e+00
    2.4957531143932499e-02 -2.1321672629555062e+00
    2.3082280454378556e-02 -1.9762891145854005e+00
    2.3037673053299124e-02 -1.9699828377963171e+00
    2.2721341734169235e-02 -1.9431911124017915e+00
    2.2319245049372587e-02 -1.9607964031443124e+00
    2.2042500511789638e-02 -1.9448749457248937e+00
    2.1843532699379428e-02 -1.9460601859447129e+00
    2.1327468987689596e-02 -1.9225016789187239e+00
    2.1058884371065695e-02 -1.8707707792137052e+00
    2.1137926881933219e-02 -1.8788734553463824e+00
    2.1408669172402701e-02 -1.9368763592736831e+00
    2.1301389006156229e-02 -1.9755827997016371e+00
    2.1348231560010176e-02 -1.9946040896182236e+00
    2.1156928574994301e-02 -1.9727633797967699e+00
    2.0197975766315848e-02 -1.9473832430603049e+00
    1.9797095089952432e-02 -1.9510262178137778e+00
    2.0025376729194619e-02 -2.0193771942599210e+00
    2.0140953616042751e-02 -2.0142097988407297e+00
    2.0215142513245892e-02 -2.0025625552184212e+00
    1.9989548616456614e-02 -1.9647681904322898e+00
    1.9717812951325787e-02 -1.9757024511172174e+00
    1.9431713884863786e-02 -1.9661361412593996e+00
    1.9560877925155259e-02 -1.9786494869405629e+00
    1.9455489816523574e-02 -1.9738478759309370e+00
    1.9541986065437302e-02 -1.9972798030970806e+00
    1.9690264085869984e-02 -2.0093019487626416e+00
    1.9812695461026566e-02 -1.9772169493038103e+00
    1.9706069714686192e-02 -1.9334341581431884e+00
    1.9408683037715070e-02 -1.8767975944254136e+00
    1.9277699214308941e-02 -1.8610647008541092e+00
    1.9305489223890117e-02 -1.8557401516464376e+00
    1.9392061632653387e-02 -1.9379941594132979e+00
    1.9033464067978352e-02 -1.9753707651459804e+00
    1.9029974635573266e-02 -2.0031210801058541e+00
    1.9202098253329729e-02 -2.0130563345010613e+00
    1.9229102694052723e-02 -1.9828919590588800e+00
    1.9278674716656102e-02 -1.9898659369475837e+00
    1.9180038103177952e-02 -2.0168463930426954e+00
    1.9329497625119346e-02 -1.9865451877452200e+00
    1.9105812187058074e-02 -1.8760604898678273e+00
    1.8999946766671941e-02 -1.8411596142363067e+00
    1.8945186225796797e-02 -1.8087270690458157e+00
    1.9214954087797342e-02 -1.8654881846488247e+00
    1.9331606116953177e-02 -1.9399706093046991e+00
    1.9455745153671388e-02 -1.9953193183168669e+00
    1.9627210819478394e-02 -2.0559503333403617e+00
    1.9487368018140508e-02 -2.0568031153691937e+00
    1.9389091292573060e-02 -2.0181179737991242e+00
    1.9470845139669929e-02 -2.0064927176033720e+00
    1.9262538597085363e-02 -2.0660167107794338e+00
    1.9370259789786844e-02 -2.0777905373374197e+00
    1.9556039513163662e-02 -2.0314947182907455e+00
    1.9448843296247121e-02 -2.0152758817821521e+00
    1.8866762786403257e-02 -1.8474419878458734e+00
    1.9244891619710422e-02 -1.9238330861203703e+00
    1.9284474697149251e-02 -2.0370322107653505e+00
    1.8722946993818091e-02 -2.0456947198359199e+00
    1.8672634618085816e-02 -2.0290575969937001e+00
    1.8799428005031326e-02 -2.0128205757205131e+00
    1.8882160482734733e-02 -2.0428137372258637e+00
    1.9394100588964298e-02 -2.0650309377113123e+00
    1.9420182012245643e-02 -2.0289676525066644e+00
    1.9029728578419284e-02 -1.9713068831917069e+00
    1.8826565789627360e-02 -1.9518656020643774e+00
    1.8318348073239094e-02 -1.9269653194769805e+00
    1.8396182534464251e-02 -1.8872810900129917e+00
    1.8313601301172371e-02 -1.8514426588168180e+00
    1.8070549707759467e-02 -1.8197864944336863e+00
    1.8919063203269942e-02 -1.8182724663824492e+00
    1.9170972356895414e-02 -1.8551183534675328e+00
    1.9502558573557854e-02 -1.8213838367816502e+00
    1.9334427379513228e-02 -1.8104054728089660e+00
    1.8862123163269191e-02 -1.7891152504978176e+00
    1.8301245319978978e-02 -1.7627426742288843e+00
    1.8048674022387603e-02 -1.7436454795605478e+00
    1.7746046950485542e-02 -1.7539345835437272e+00
    1.7327800168985420e-02 -1.7500093636574765e+00
    1.7781024775800215e-02 -1.7595132244053213e+00
    1.8253446895211987e-02 -1.7575165402628541e+00
    1.8275895766868732e-02 -1.8500190851280305e+00
    1.7955730462699718e-02 -1.8694363920369865e+00
    1.7675898162572961e-02 -1.8589822442569632e+00
    1.7634960693831549e-02 -1.8671014634594152e+00
    1.7593214550080408e-02 -1.8768761158653964e+00
    1.7610661992653636e-02 -1.8984493749239626e+00
    1.7669647625144117e-02 -1.8797091618498483e+00
    1.6878723990927134e-02 -1.8430415776002138e+00
    1.6075018473210141e-02 -1.8100836142163557e+00
    1.6175176619303778e-02 -1.8187883255455781e+00
    1.6294698826346512e-02 -1.8304686959982777e+00
    1.5567663448332216e-02 -1.7862124754296633e+00
    1.5984314006504838e-02 -1.8062274827350466e+00
    1.8303025867431197e-02 -1.8740842565737363e+00
    1.8062781003044648e-02 -1.8283434293706839e+00
    1.7601864840347013e-02 -1.7899896415484706e+00
    1.7239224195931008e-02 -1.7941526681640243e+00
    1.6801465411522526e-02 -1.7955611529848137e+00
    1.6779224686259357e-02 -1.8125376121316072e+00
    1.6633021071793971e-02 -1.8209377841552628e+00
    1.6484899479787731e-02 -1.8042535152224493e+00
    1.6409007725155616e-02 -1.8271803033954532e+00
    1.6647945686046443e-02 -1.8068696505389723e+00
    1.6513757336151447e-02 -1.7836734486377217e+00
    1.6014543640468511e-02 -1.8521365670553214e+00
    1.5437413963614855e-02 -1.8480163340875078e+00
    1.5281760743226118e-02 -1.8142749473278961e+00
    1.5414328656799349e-02 -1.8071548721840782e+00
    1.5562953170153885e-02 -1.7734692544352630e+00
    1.5700367882199102e-02 -1.5506789482742442e+00
    2.6151359249726606e-02 -2.5559981921238468e+00
    2.5726016107169621e-02 -2.4916231281978032e+00
    2.5768805742872786e-02 -2.4579926750644794e+00
    2.5746224696990876e-02 -2.4723689977491068e+00
    2.5706156087260280e-02 -2.4989012755507733e+00
    2.5705241154644964e-02 -2.4980820722104973e+00
    2.5453833063387516e-02 -2.4523900412264892e+00
    2.5223516301742906e-02 -2.4238939273373736e+00
    2.5629665633563607e-02 -2.4533123689127616e+00
    2.5588114851938418e-02 -2.4862633641079483e+00
    2.5503028093077623e-02 -2.4698813286733414e+00
    2.5469559677423724e-02 -2.4388550525205797e+00
    2.5260139534369796e-02 -2.3735919751102710e+00
    2.5183452953610772e-02 -2.3882784843677123e+00
    2.3863773674808221e-02 -2.3368871550302255e+00
    2.3696561506122565e-02 -2.3293989239626507e+00
    2.3482209936975491e-02 -2.2909831069761712e+00
    2.3254797497872438e-02 -2.2241363993277656e+00
    2.3691620242256486e-02 -2.1906672035368300e+00
    2.4698386452011594e-02 -2.2589200381706283e+00
    2.4803545385436769e-02 -2.2753025014083899e+00
    2.5134930374082320e-02 -2.3228388780366420e+00
    2.5742483433153565e-02 -2.3889317154187339e+00
    2.5703272064137996e-02 -2.4066148883234662e+00
    2.5106864327236508e-02 -2.3982761538039781e+00
    2.4553434039280612e-02 -2.3717780233057368e+00
    2.4387171969179854e-02 -2.3490666272358300e+00
    2.4086243839403047e-02 -2.3017416769029535e+00
    2.4695893375482038e-02 -2.3273073154871877e+00
    2.5241519710130934e-02 -2.3999522206211990e+00
    2.5140692314608741e-02 -2.4210772388653612e+00
    2.5007906035998246e-02 -2.4072951367152404e+00
    2.4858459514618157e-02 -2.3112717698705203e+00
    2.4743550035273967e-02 -2.2716265992611180e+00
    2.4588988317491598e-02 -2.3123428729704743e+00
    2.3717381447125270e-02 -2.2827979642858072e+00
    2.3930275234314059e-02 -2.2963546501836940e+00
    2.4568789789328697e-02 -2.2888061215104165e+00
    2.4940907211308355e-02 -2.2381630028147961e+00
    2.5301764037722774e-02 -2.2520007593802682e+00
    2.5765063738574553e-02 -2.2780122547497652e+00
    2.4637557671847044e-02 -2.1644654359210174e+00
    2.4074909150005302e-02 -2.1017669266467696e+00
    2.4381981661250961e-02 -2.1677798240639490e+00
    2.3762835203696743e-02 -2.2472081200586849e+00
    2.3830257413050282e-02 -2.3384794078454059e+00
    2.2846990744735583e-02 -2.2451062780125111e+00
    2.2707237739239362e-02 -2.2151168451420489e+00
    2.3288822096994576e-02 -2.2748944857473341e+00
    2.3658762633624091e-02 -2.2883131608646754e+00
    2.5158175433708671e-02 -2.3622954955538038e+00
    2.6173717553367719e-02 -2.4372787328530885e+00
    2.6512991274776024e-02 -2.5149681212067372e+00
    2.6110727599841871e-02 -2.5210204210460958e+00
    2.5421382905182938e-02 -2.4325085767396923e+00
    2.5350628690755314e-02 -2.4489283465921696e+00
    2.6855814522689165e-02 -2.6213411232118022e+00
    2.7348187899958611e-02 -2.6175012794022883e+00
    2.7801434878919132e-02 -2.6130189532220469e+00
    2.7889596739646444e-02 -2.6412715821387893e+00
    2.8157614137488390e-02 -2.6455358373722047e+00
    2.9213431446529371e-02 -2.5848907268000110e+00
    2.9284404583336563e-02 -2.5023190939136284e+00
    2.8891061476942079e-02 -2.4746179077551242e+00
    2.7157328812707906e-02 -2.3710199689549416e+00
    2.6642071412139996e-02 -2.3329977534312589e+00
    2.6728285153555836e-02 -2.3760838040484917e+00
    2.6052411191100380e-02 -2.3721016439624067e+00
    2.4810740585568491e-02 -2.2803326120008856e+00
    2.4147057150203245e-02 -2.2078093389833557e+00
    2.4671188033877273e-02 -2.2379290736411970e+00
    2.4722003890100177e-02 -2.2530735363477663e+00
    2.4419213222896689e-02 -2.2378266481369358e+00
    2.4430022782153334e-02 -2.2093901853609923e+00
    2.4700164625359674e-02 -2.2398558376178435e+00
    2.4833826211795126e-02 -2.2763870356527884e+00
    2.4853387972779473e-02 -2.2901832167189626e+00
    2.4565309878693969e-02 -2.2329308377235573e+00
    2.4325957205991698e-02 -2.1719209746304178e+00
    2.4365755292566991e-02 -2.1443249075373303e+00
    2.2607310477433373e-02 -2.0242534421242757e+00
    2.2057558647683825e-02 -2.0005955039373688e+00
    2.2435434584348043e-02 -2.0375453772512451e+00
    2.1877316898126407e-02 -1.9868581437480255e+00
    2.1114252570557407e-02 -1.9247560695569490e+00
    2.0412985796265104e-02 -1.8938843469728006e+00
    1.9623153467356238e-02 -1.8743456417029869e+00
    1.9392793247191328e-02 -1.8956455399129524e+00
    1.8865640276664247e-02 -1.8655545646310487e+00
    1.8735825415895583e-02 -1.8173750653418717e+00
    1.9189648121477096e-02 -1.8236707640899199e+00
    1.8749289608180078e-02 -1.8167635510108127e+00
    1.8604776315464387e-02 -1.8260165117802942e+00
    1.8953456073304158e-02 -1.8560387239965748e+00
    1.9551294320513106e-02 -1.9155824958120911e+00
    2.0124314820518699e-02 -2.0252378642103817e+00
    2.0290267208778728e-02 -2.0543895548888460e+00
    2.0070649977011502e-02 -2.0264514209744000e+00
    1.9796361715104519e-02 -2.0229407127622432e+00
    1.9821766663762119e-02 -2.0856778229898332e+00
    1.9645798912925630e-02 -2.0818965654828179e+00
    1.9884519430975550e-02 -2.0954442152630883e+00
    2.0752644429037719e-02 -2.2113357592168943e+00
    2.1120233641764973e-02 -2.2812252359656373e+00
    2.0993036011906926e-02 -2.2364740069503117e+00
    2.1738510245594572e-02 -2.3613456754277102e+00
    2.2793260740469577e-02 -2.5667024694054916e+00
    2.3049074745881946e-02 -2.6330948684130817e+00
    2.2916029497512754e-02 -2.5889905143667251e+00
    2.2501630205492687e-02 -2.5065026146516143e+00
    2.2077898718771412e-02 -2.4244292530550857e+00
    2.1797073843548023e-02 -2.3803395413238237e+00
    2.1577055041535960e-02 -2.3673462093867013e+00
    2.1476823788639080e-02 -2.3769718782892082e+00
    2.1213146201405356e-02 -2.3379056640264753e+00
    2.1363427329902738e-02 -2.3606587199542526e+00
    2.0856641225600627e-02 -2.3008667388423962e+00
    2.0477047164115518e-02 -2.1989556329646778e+00
    1.9580074645765666e-02 -2.0540165805952926e+00
    1.9480023302669822e-02 -2.0759506651413360e+00
    1.9936966603231319e-02 -2.1572704090450978e+00
    2.0190417209805984e-02 -2.2418246199660712e+00
    2.0055020767016880e-02 -2.2200680091124427e+00
    1.9723086892638585e-02 -2.1594538887565085e+00
    1.9534723956472714e-02 -2.2093106838272121e+00
    1.9715326680865366e-02 -2.3034446735149685e+00
    1.9945328812564351e-02 -2.3324702137511331e+00
    1.9810336269380592e-02 -2.2770630836907348e+00
    2.0530087053267431e-02 -2.3380969596346159e+00
    2.0823321136985568e-02 -2.3962200169736860e+00
    2.1214086643745970e-02 -2.4589054973432827e+00
    2.1136766059014035e-02 -2.4308481920483129e+00
    2.1347005597608850e-02 -2.4511456597845300e+00
    2.1678286622967047e-02 -2.5104933974392862e+00
    2.1599560032376713e-02 -2.5348801844814828e+00
    2.1784583495903266e-02 -2.5888997068199586e+00
    2.1757008209549313e-02 -2.5736315563329955e+00
    2.2083213298865527e-02 -2.6373128427775825e+00
    2.2428451453919977e-02 -2.7723350078410745e+00
    2.2169041208054727e-02 -2.7824665925336869e+00
    2.2536087661987534e-02 -2.7727070581402162e+00
    2.1748933319146620e-02 -2.6050526323916472e+00
    2.1154689639588324e-02 -2.5092346642957151e+00
    2.1753023473095007e-02 -2.6045537707302904e+00
    2.2972371194640909e-02 -2.8310837000668254e+00
    2.3672492444286819e-02 -2.9741258689094896e+00
    2.4229002339386591e-02 -3.0872704912675211e+00
    2.4160358735350281e-02 -3.0870349275031654e+00
    2.4775843314264901e-02 -3.1297802523071110e+00
    2.5929376031257292e-02 -3.2757936139488968e+00
    2.4695840132594186e-02 -3.0787012974389150e+00
    2.4256872189087529e-02 -2.9297064325195090e+00
    2.4020314316607866e-02 -2.8850308201066688e+00
    2.3752047898845455e-02 -2.8449825099747788e+00
    2.3230454415919012e-02 -2.7314262709262955e+00
    2.2638205270170231e-02 -2.6114970545469673e+00
    2.3474567135811034e-02 -2.6894384757187142e+00
    2.3894080277837026e-02 -2.6739648020015800e+00
    2.2922437992921631e-02 -2.5140444350986719e+00
    2.3198207128021894e-02 -2.5450805763350837e+00
    2.3978925345072649e-02 -2.7175207098455627e+00
    2.3972357384303086e-02 -2.7519176624571564e+00
    2.4448225392650812e-02 -2.7772350583822027e+00
    2.4973047949235071e-02 -2.7745623840871740e+00
    2.4018197427810969e-02 -2.6519638103105145e+00
    2.4164571237190693e-02 -2.6468443426736488e+00
    2.3907986313431637e-02 -2.6012160790676275e+00
    2.3251407434151248e-02 -2.4901464700358913e+00
    2.3372014073574365e-02 -2.4816829489031691e+00
    2.3052012640543126e-02 -2.3702970042949372e+00
    2.2404676673707508e-02 -2.2778936613597849e+00
    2.2396076317918633e-02 -2.3104861233207310e+00
    2.2215584895332624e-02 -2.2964098636408319e+00
    2.3074585320350095e-02 -2.4539034854601858e+00
    2.3367923455346527e-02 -2.4856300852701270e+00
    2.2970337297628853e-02 -2.3590275378104630e+00
    2.3279809253491775e-02 -2.3423985344891243e+00
    2.3565266624934276e-02 -2.3499658780353494e+00
    2.3693218466090245e-02 -2.3309549871610939e+00
    2.3928320054128229e-02 -2.3184638743355039e+00
    2.4510257549990713e-02 -2.4886267182859889e+00
    2.4515697424449971e-02 -2.5120232235939248e+00
    2.4104419516336930e-02 -2.4589247045245073e+00
    2.3401489739854228e-02 -2.4003812174635706e+00
    2.3694945426552119e-02 -2.4456953330610558e+00
    2.3882462242159126e-02 -2.4381822816313363e+00
    2.4515017479873832e-02 -2.4778275338038385e+00
    2.3518952539958709e-02 -2.3945233554745462e+00
    2.3166203532792147e-02 -2.3336001274595000e+00
    2.2893843353420758e-02 -2.2485396375410867e+00
    2.3042315786077905e-02 -2.1941259673799975e+00
    2.3490559633932165e-02 -2.1762134933594544e+00
    2.3448032572365850e-02 -2.1957217319611453e+00
    2.1858546545839425e-02 -2.1093497416735048e+00
    2.2473216076066567e-02 -2.1210374559064871e+00
    2.4491160391596292e-02 -2.2079616018946497e+00
    2.5173635057334463e-02 -2.1935390184050076e+00
    2.6044131033131433e-02 -2.1937741054896223e+00
    2.6781863699368903e-02 -2.1945911265471492e+00
    2.7605208106573343e-02 -2.1908496979125935e+00
    2.7620688799524066e-02 -2.0998000916910908e+00
    2.7137382825326677e-02 -2.0292903145688888e+00
    2.7380101574906921e-02 -2.1359590603606367e+00
    2.5447337931479214e-02 -2.1225393229211069e+00
    2.5117613043344846e-02 -2.1097367819304935e+00
    2.5081915579041957e-02 -2.0931998637782288e+00
    2.4808359481067490e-02 -2.1039180319000761e+00
    2.4121324618648996e-02 -2.0943065994180414e+00
    2.4079088599148434e-02 -2.1178652926978283e+00
    2.3599408335691869e-02 -2.1002132543292147e+00
    2.4427387276055000e-02 -2.1469730328028112e+00
    2.5020757853141107e-02 -2.1772324234139551e+00
    2.3584031294756762e-02 -2.0704367473595839e+00
    2.3467574722926144e-02 -2.0223449194467094e+00
    2.3010870369669492e-02 -2.0023379529061835e+00
    2.2501325669846875e-02 -2.0004445611141710e+00
    2.2253494001573480e-02 -1.9872623024018770e+00
    2.1884865660636119e-02 -1.9567059433850567e+00
    2.1628872110830224e-02 -1.9421744024975049e+00
    2.1317415538793655e-02 -1.8811407996193426e+00
    2.1458531331459387e-02 -1.9291951207822835e+00
    2.1540014845712812e-02 -2.0312478772403155e+00
    2.1185072301053397e-02 -2.0601279115484599e+00
    2.0984474774360485e-02 -2.0546900783326945e+00
    2.0638770634520742e-02 -2.0177916267511273e+00
    2.0206447664542646e-02 -1.9888425732549559e+00
    1.9757225044435736e-02 -1.9750489626806951e+00
    2.0219425832651204e-02 -2.0289504524457551e+00
    2.0165918620363078e-02 -2.0356119898259681e+00
    2.0444681809391695e-02 -2.0161244175216035e+00
    2.0295976039262174e-02 -1.9473758373580701e+00
    2.0216818995420067e-02 -1.9644774912481477e+00
    1.9685759042919821e-02 -1.9428501964518028e+00
    1.9906613239582222e-02 -1.9759575755426217e+00
    1.9735959277553342e-02 -1.9639522203810753e+00
    1.9903924155406531e-02 -1.9803273629847942e+00
    1.9966337759749337e-02 -1.9601044534826650e+00
    1.9704293706819365e-02 -1.9003447805656357e+00
    1.9650971781077886e-02 -1.8508759046302734e+00
    1.9251308816238186e-02 -1.7961689890423138e+00
    1.9492392923113819e-02 -1.8704944549913027e+00
    1.9434296388705179e-02 -1.8644778097914032e+00
    1.9432075001520478e-02 -1.9232233775652567e+00
    1.9183192321667750e-02 -1.9724899513933027e+00
    1.9147379136754173e-02 -1.9925241414184811e+00
    1.9206270572560670e-02 -1.9777002362870284e+00
    1.9249955869902722e-02 -1.9593392582581668e+00
    1.9266144050456215e-02 -1.9798152346394950e+00
    1.9441322842494512e-02 -1.9917414328012417e+00
    1.9411477146121184e-02 -1.8714428648601378e+00
    1.9395312565148887e-02 -1.8559991717172588e+00
    1.9190138726284417e-02 -1.8177204699198153e+00
    1.8725597478434306e-02 -1.7128601920756470e+00
    1.9154717758269109e-02 -1.8015229718899348e+00
    1.9490251942848862e-02 -1.9148065133170435e+00
    1.9646076014735940e-02 -2.0013323685693223e+00
    1.9810418216951970e-02 -2.0421614642622701e+00
    1.9584418749742104e-02 -2.0277662663440363e+00
    1.9584969605366591e-02 -1.9883195278902854e+00
    1.9647637012178490e-02 -1.9755922284347882e+00
    1.9212638438750228e-02 -2.0230034974256772e+00
    1.9292489533761351e-02 -2.0383172890925700e+00
    1.9526244916003938e-02 -2.0332811964522963e+00
    1.9613503536966777e-02 -2.0140616444522759e+00
    1.9782998922856291e-02 -1.9494122177221402e+00
    1.9693885069156165e-02 -1.9489113423266642e+00
    1.9624951910183697e-02 -2.0276143496294337e+00
    1.9147876818764654e-02 -2.0350058857670050e+00
    1.8967285573711162e-02 -2.0360734451370739e+00
    1.9134285538133507e-02 -2.0347573189301520e+00
    1.9900850796393744e-02 -2.0431163240911281e+00
    2.0017204508910345e-02 -2.0315187894213440e+00
    2.0024982812271205e-02 -1.9662029998798789e+00
    1.9389712550338997e-02 -1.9179290101639297e+00
    1.9049426514689133e-02 -1.8957426443453418e+00
    1.8913992465696916e-02 -1.9141820102215539e+00
    1.8579158733387363e-02 -1.8660442552845933e+00
    1.8664600839772068e-02 -1.8379329383755096e+00
    1.8267139741389011e-02 -1.8051255362627139e+00
    1.8748511310429653e-02 -1.8258493401179787e+00
    1.9582715550386865e-02 -1.8145166204301646e+00
    1.9280406699326562e-02 -1.8516858774927096e+00
    1.9149396280770638e-02 -1.8178870060177037e+00
    1.9103285271637783e-02 -1.7764969888687250e+00
    1.8435807334169097e-02 -1.7462690003859831e+00
    1.8243810299061376e-02 -1.7333692944369565e+00
    1.8537790895820392e-02 -1.7011582997636088e+00
    1.8008914583117458e-02 -1.7236373076853042e+00
    1.7840858278209262e-02 -1.7497219019327845e+00
    1.8304256414262934e-02 -1.8041132728307905e+00
    1.8280451358615037e-02 -1.8474681154300321e+00
    1.8102661884609128e-02 -1.8437972553608140e+00
    1.7803235387579493e-02 -1.8368690420628182e+00
    1.7890334421589073e-02 -1.8244075124925041e+00
    1.7637673385393026e-02 -1.8443394374134843e+00
    1.7359611692009509e-02 -1.8523494748632874e+00
    1.7616879507751086e-02 -1.8528753214089793e+00
    1.7044175666413582e-02 -1.8188847009464768e+00
    1.7311108889017764e-02 -1.8267154220843063e+00
    1.7481270520632166e-02 -1.8332489204506131e+00
    1.7429780972680036e-02 -1.8316124948279389e+00
    1.6320286237590239e-02 -1.8018152379694088e+00
    1.6669970758754232e-02 -1.8144694876446297e+00
    1.8165677990143184e-02 -1.8391716824225079e+00
    1.8178711655020482e-02 -1.7813071659232003e+00
    1.7665366910897921e-02 -1.7111316766874305e+00
    1.7271202835278276e-02 -1.7344801710996791e+00
    1.6923284788479261e-02 -1.7531946110701271e+00
    1.6697411542341323e-02 -1.7703999817706333e+00
    1.6490665318085133e-02 -1.7832405814420242e+00
    1.6372081972768304e-02 -1.7927429760181293e+00
    1.6422283030596868e-02 -1.7659552763470245e+00
    1.6029691967842534e-02 -1.5958651287530505e+00
    1.6363350090812932e-02 -1.7178728387951736e+00
    1.6089224335297948e-02 -1.8264012101983960e+00
    1.5506566040267082e-02 -1.8295985817737854e+00
    1.5264336087746456e-02 -1.8014518459010320e+00
    1.5359941667876091e-02 -1.8013022501418325e+00
    1.5494965504404214e-02 -1.7784874895140315e+00
    1.5612429308549005e-02 -1.5285100534977722e+00
    2.6973944469990286e-02 -2.5658964677078258e+00
    2.6492044677212213e-02 -2.4783608841494265e+00
    2.5800998258335029e-02 -2.4159116550986437e+00
    2.5819818957223475e-02 -2.4385058562895940e+00
    2.5837120580059939e-02 -2.4606921316077539e+00
    2.5899333100641828e-02 -2.4754464853352092e+00
    2.5527891781745405e-02 -2.4380587099963549e+00
    2.5324870368761961e-02 -2.4144961635671915e+00
    2.5483259458104476e-02 -2.4471168642126351e+00
    2.4960852089082806e-02 -2.4461635047301149e+00
    2.5330390632302701e-02 -2.4448144640393523e+00
    2.5948344754152659e-02 -2.4338367909179097e+00
    2.5342730575897403e-02 -2.2661584875197347e+00
    2.4926094379677417e-02 -2.2987240788440007e+00
    2.3864975651772875e-02 -2.2964615206728718e+00
    2.3762583096347479e-02 -2.2938993568576342e+00
    2.3906571173262472e-02 -2.2769650714624934e+00
    2.3685535998536601e-02 -2.2436662282250128e+00
    2.3760291973013745e-02 -2.2448075848140490e+00
    2.4725579375231562e-02 -2.3431701045425410e+00
    2.5392327338777308e-02 -2.4073657612206714e+00
    2.5605528750127428e-02 -2.4290335682507247e+00
    2.5935505925174997e-02 -2.4478107325175107e+00
    2.5955129615538423e-02 -2.4431740473899151e+00
    2.5706217506673675e-02 -2.4287993802186167e+00
    2.5225004082019338e-02 -2.3803231124669155e+00
    2.4734383575415256e-02 -2.3485016132316159e+00
    2.4325703709212432e-02 -2.3384464832736653e+00
    2.5197470393616098e-02 -2.4023497341186260e+00
    2.6078954908514519e-02 -2.4248982788513640e+00
    2.6315657982042742e-02 -2.4460105052740753e+00
    2.6146789086826692e-02 -2.4451704635231848e+00
    2.5559852826907963e-02 -2.3260918336851408e+00
    2.5626352798201007e-02 -2.2988003294204402e+00
    2.5476323530721733e-02 -2.3251487776930864e+00
    2.4775143948987399e-02 -2.3074668159761447e+00
    2.4652208272041780e-02 -2.3161870226504711e+00
    2.5258644488409004e-02 -2.3170500867350192e+00
    2.5747516230311775e-02 -2.2989898724963043e+00
    2.5642005579625708e-02 -2.2776220069675492e+00
    2.6024265955977996e-02 -2.3262145001104879e+00
    2.5407783417827786e-02 -2.2471452084199277e+00
    2.4967218847686365e-02 -2.1850572267665513e+00
    2.5021435492285107e-02 -2.2134018703374250e+00
    2.4744341614223155e-02 -2.3154236479809156e+00
    2.5134983431908030e-02 -2.4043896651113839e+00
    2.4881660822392987e-02 -2.3636164050544792e+00
    2.4777509608401905e-02 -2.3355618432010661e+00
    2.4984310083978317e-02 -2.3618690407797227e+00
    2.5335016228130357e-02 -2.3823552191793032e+00
    2.5952147446715399e-02 -2.4154666325263920e+00
    2.6564307414590586e-02 -2.4519157610796820e+00
    2.7370236174407273e-02 -2.5420106846980755e+00
    2.6555715892936389e-02 -2.5033288771574296e+00
    2.5964048108078053e-02 -2.4252781300954727e+00
    2.6201767366649805e-02 -2.4724940478711361e+00
    2.8325854159094031e-02 -2.6883810674631059e+00
    2.8682224799034536e-02 -2.6545724985879180e+00
    2.8747880936522124e-02 -2.6093602156871643e+00
    2.8358463942632670e-02 -2.6204187448808813e+00
    3.0537925511755888e-02 -2.7426874350245756e+00
    3.1217712372095578e-02 -2.6338171080298141e+00
    3.0608949782732542e-02 -2.4948033217801040e+00
    3.0811838112172876e-02 -2.5008358376840318e+00
    2.9784185212443762e-02 -2.4412878174699641e+00
    2.8813478392388198e-02 -2.3866073182058813e+00
    2.9086398972697328e-02 -2.4759797125508602e+00
    2.9147165789972788e-02 -2.5252044543494607e+00
    2.5976343707867239e-02 -2.3058432826591471e+00
    2.4752916906689505e-02 -2.1911957125353547e+00
    2.4788147241677123e-02 -2.2058634210178809e+00
    2.4837258273364526e-02 -2.2160196969695631e+00
    2.4918898787641950e-02 -2.2237285474926387e+00
    2.4954536854381353e-02 -2.2052154073647343e+00
    2.5576342922920839e-02 -2.2645235895902016e+00
    2.5678212114501577e-02 -2.3164373508064857e+00
    2.5640625370740213e-02 -2.3485938727369486e+00
    2.6145761671275657e-02 -2.3483647755654862e+00
    2.6058323449967634e-02 -2.2952052847806721e+00
    2.5878232283879744e-02 -2.2518473149296492e+00
    2.4219755424547698e-02 -2.1397328244107507e+00
    2.2383682996096946e-02 -2.0183468701594234e+00
    2.2599114481553790e-02 -2.0488151742481380e+00
    2.1857775834474742e-02 -2.0002348726707400e+00
    2.0809619308009220e-02 -1.9324569202846744e+00
    2.0371809145267469e-02 -1.9218949945910289e+00
    1.9796889696703179e-02 -1.9208607122193193e+00
    1.9560482640616540e-02 -1.9392662590688523e+00
    1.9144473593657018e-02 -1.8967169662079399e+00
    1.9496812778356014e-02 -1.8938494957884910e+00
    2.0087736284994016e-02 -1.9089056214007099e+00
    1.9589520943968625e-02 -1.8798148819470799e+00
    1.9080588395923515e-02 -1.8450712153989905e+00
    1.9310576950708796e-02 -1.8589721890673814e+00
    1.9885000050066375e-02 -1.9137052889092285e+00
    2.0246993089897001e-02 -1.9797187732047585e+00
    2.0315091488887181e-02 -2.0117711906807654e+00
    2.0359187283400842e-02 -2.0598639088381749e+00
    1.9991113880290047e-02 -2.0765769543151285e+00
    1.9800406310053191e-02 -2.0969305296197809e+00
    1.9498283421221067e-02 -2.1091381805295835e+00
    1.9946758936597572e-02 -2.1516432864278690e+00
    2.0896049541419097e-02 -2.2395578551124342e+00
    2.1083642146267036e-02 -2.2682884320429904e+00
    2.1007508827522586e-02 -2.2495938572290806e+00
    2.2176922334714976e-02 -2.4116142986597158e+00
    2.3087756494308144e-02 -2.5670699252108866e+00
    2.3280812902142272e-02 -2.6163136272242724e+00
    2.3053892090444152e-02 -2.5716878602936935e+00
    2.2510048815177101e-02 -2.4874882920817014e+00
    2.2213615752151108e-02 -2.4471579307866924e+00
    2.2064972365972785e-02 -2.4520954233298959e+00
    2.1858725243843549e-02 -2.4320315779826385e+00
    2.1786802610929273e-02 -2.3965482872022199e+00
    2.1278681236492972e-02 -2.3467000159109577e+00
    2.1630039145260224e-02 -2.4182629560300306e+00
    2.1469420941351770e-02 -2.4027453652375330e+00
    2.1172799383922788e-02 -2.3528273315384198e+00
    2.0735955798518734e-02 -2.2549173751582390e+00
    2.0248687828237230e-02 -2.1641935610055145e+00
    2.0074337122050503e-02 -2.1190972124464560e+00
    2.0718216732869707e-02 -2.2911287060900176e+00
    2.0538408327837616e-02 -2.3094039818631047e+00
    1.9998976447381512e-02 -2.2059098282557801e+00
    1.9994124490961461e-02 -2.2734228370063678e+00
    2.0042627762861021e-02 -2.3369020700094945e+00
    2.0099084937734692e-02 -2.3386884115901632e+00
    2.0009765412054788e-02 -2.2852061635358023e+00
    2.0338716158888177e-02 -2.2584064198474527e+00
    2.0602007982335465e-02 -2.3094148607016840e+00
    2.0947448670145603e-02 -2.3989589511105383e+00
    2.0956008324875680e-02 -2.3876751985155229e+00
    2.1150825713439118e-02 -2.3941292605859892e+00
    2.1550040814578311e-02 -2.4589086343088731e+00
    2.1578783947275259e-02 -2.4860966028346612e+00
    2.1441540528775147e-02 -2.5026907220603856e+00
    2.1537111709846169e-02 -2.5292645564250593e+00
    2.2180216002040586e-02 -2.6441085905614403e+00
    2.2388365055235167e-02 -2.7031406671803824e+00
    2.1691339020341795e-02 -2.5845969920203853e+00
    2.2524461223105485e-02 -2.7264836471422687e+00
    2.2264419911768179e-02 -2.6953863355684353e+00
    2.2070687150474250e-02 -2.6746913990480983e+00
    2.2689650988500433e-02 -2.7833498002370702e+00
    2.3575862454297231e-02 -2.9546181713320117e+00
    2.4529199813183317e-02 -3.1214800466810608e+00
    2.4434365697550510e-02 -3.1216290494853589e+00
    2.4344937115570921e-02 -3.0988615125007692e+00
    2.4824737630995904e-02 -3.0990017641511987e+00
    2.5677240042983249e-02 -3.1953574512580629e+00
    2.5078860771288337e-02 -3.1089237744770961e+00
    2.4837384901120668e-02 -2.9862721698444004e+00
    2.4011056387607522e-02 -2.8293482864920021e+00
    2.3980392550323748e-02 -2.8490341376549408e+00
    2.3608283645252560e-02 -2.7844360903872309e+00
    2.3237690229306177e-02 -2.7028338447961748e+00
    2.3314781989704027e-02 -2.6670256011290405e+00
    2.3380605695590691e-02 -2.5939187887051354e+00
    2.2933083532975251e-02 -2.4871971504399522e+00
    2.3387342435225396e-02 -2.5314140533582035e+00
    2.3841029403562222e-02 -2.6107281800844016e+00
    2.4152739023906206e-02 -2.6342953312664972e+00
    2.4665114769593290e-02 -2.6565449748432410e+00
    2.4313701081802558e-02 -2.5994938253197657e+00
    2.4397653958841636e-02 -2.6090241202236273e+00
    2.5033024558810145e-02 -2.6690040104890476e+00
    2.4601732270496716e-02 -2.6129555757522449e+00
    2.3874880938818364e-02 -2.5329078232364575e+00
    2.4162442396023231e-02 -2.5183854733673305e+00
    2.3345851659331049e-02 -2.3803483410607709e+00
    2.2939955099653242e-02 -2.3153713772172737e+00
    2.3351972967945854e-02 -2.4106931639466378e+00
    2.3211151808508825e-02 -2.3944413195186716e+00
    2.4071405911632919e-02 -2.5047939083275299e+00
    2.4065614748045746e-02 -2.5159506327502372e+00
    2.3702053922542678e-02 -2.4065664977036230e+00
    2.3824106795567498e-02 -2.3806509443957133e+00
    2.4265336254387770e-02 -2.4153660559126102e+00
    2.4269037916988884e-02 -2.3927065109976771e+00
    2.5049876881370722e-02 -2.4770912343373639e+00
    2.5336445592214769e-02 -2.5835976650197638e+00
    2.5092442533536700e-02 -2.5590014263321037e+00
    2.4528938480036094e-02 -2.5236932840709865e+00
    2.4157192612375745e-02 -2.4515432798275181e+00
    2.4389462871791660e-02 -2.4629200205701887e+00
    2.4485103685093094e-02 -2.4711869133994808e+00
    2.5120188454810441e-02 -2.4986023811926796e+00
    2.3913435493427573e-02 -2.4005828312379451e+00
    2.3534705632997290e-02 -2.3358195340749810e+00
    2.3632591581334059e-02 -2.2781281180051911e+00
    2.4128079983468630e-02 -2.2395245148292244e+00
    2.4874017712408016e-02 -2.2414881870385859e+00
    2.4663576388450945e-02 -2.2533540245812000e+00
    2.3404016936306348e-02 -2.2010414109644469e+00
    2.4453333271135913e-02 -2.2428986306587899e+00
    2.6913341508843776e-02 -2.3321327917691845e+00
    2.7573279659852117e-02 -2.2892088772145405e+00
    2.7997317715022511e-02 -2.2730322319883900e+00
    2.8427524924446172e-02 -2.2439977487234697e+00
    2.9006101714194869e-02 -2.2394028982527265e+00
    2.9360657984765396e-02 -2.2687781170045986e+00
    2.9038192359460167e-02 -2.3215704811929774e+00
    2.8257965342372099e-02 -2.3232543096825244e+00
    2.6486010779111734e-02 -2.2430340378560252e+00
    2.5939920248414104e-02 -2.1979660833215884e+00
    2.5440216540307575e-02 -2.1531674180933047e+00
    2.4938041816891431e-02 -2.1259680648899946e+00
    2.4696365282978562e-02 -2.1212213294476530e+00
    2.4493435187462730e-02 -2.1499947739267711e+00
    2.4055125370210883e-02 -2.1158942946376968e+00
    2.4262507229149140e-02 -2.1364791877122351e+00
    2.4275524003617793e-02 -2.1707283907325956e+00
    2.3299118023710319e-02 -2.1002301559441148e+00
    2.3577304928261190e-02 -2.0756066054459028e+00
    2.3479095511070667e-02 -2.0780333566815212e+00
    2.2850975775846782e-02 -2.0559386443780330e+00
    2.2951529369951432e-02 -2.0316015684913258e+00
    2.2649380699992370e-02 -1.9807912939447871e+00
    2.2260144187554717e-02 -1.9375178909610837e+00
    2.1812706478383261e-02 -1.9079921376972175e+00
    2.1953927430352980e-02 -1.9914457467362801e+00
    2.1771880208624344e-02 -2.0523708212573095e+00
    2.1504522477666002e-02 -2.0797072562065511e+00
    2.1441070039579884e-02 -2.0551752929983675e+00
    2.1088290854278685e-02 -2.0177660112843925e+00
    2.0720312156157192e-02 -2.0209368095033771e+00
    2.0099620081228460e-02 -1.9823250305111568e+00
    2.0385581340026691e-02 -2.0153927006617294e+00
    2.0571119836938528e-02 -2.0398135420127907e+00
    2.0774252873657285e-02 -2.0070761128617525e+00
    2.0142512111873588e-02 -1.8838971129179043e+00
    2.0212370584746866e-02 -1.8725153544562365e+00
    1.9806574552840232e-02 -1.8462878529198685e+00
    1.9770823044658308e-02 -1.8429552435833194e+00
    1.9905122733870875e-02 -1.8535514573034646e+00
    1.9947702231076909e-02 -1.8680569782534635e+00
    1.9242016559864718e-02 -1.7570366371226471e+00
    1.9100428884732925e-02 -1.7405265821212879e+00
    1.9469232864322238e-02 -1.7874083217143111e+00
    1.9576437107825966e-02 -1.8105979729613129e+00
    1.9720230840661469e-02 -1.8674834512574132e+00
    1.9682260320843244e-02 -1.8751826196585200e+00
    1.9546294374560347e-02 -1.9229777675881385e+00
    1.9245794259718872e-02 -1.9695227296124804e+00
    1.9108508811728521e-02 -1.9663306993705412e+00
    1.9234998868779163e-02 -1.9497294307898878e+00
    1.9328289552454470e-02 -1.9514983258358860e+00
    1.9286666571740111e-02 -1.9538708237166260e+00
    1.9512427395863501e-02 -1.8633259502402151e+00
    1.9175406656348985e-02 -1.7858186960466829e+00
    1.9735539014981061e-02 -1.9382317720110660e+00
    1.9430567540986789e-02 -1.8375134440465006e+00
    1.8906439542074216e-02 -1.7069507063838596e+00
    1.9585642990378568e-02 -1.8758817266409746e+00
    1.9470117880394454e-02 -1.9535387025561683e+00
    1.9470732542592534e-02 -1.9864572359931336e+00
    1.9825006138783925e-02 -1.9674065751136365e+00
    1.9551597361199814e-02 -1.9169452503685454e+00
    1.9591773829852957e-02 -1.9518304677991007e+00
    1.9386358467659476e-02 -1.9790608101615783e+00
    1.9105916657328702e-02 -1.9946142764872588e+00
    1.8927667836172529e-02 -2.0065478777687900e+00
    1.9155291684584186e-02 -2.0010749597316186e+00
    1.9305162177983184e-02 -1.9763659779710285e+00
    1.9456884189153232e-02 -1.9263420852045172e+00
    1.9317627684240547e-02 -1.9126646592362260e+00
    1.9383632793394362e-02 -1.9976155204919714e+00
    1.9076033084110326e-02 -2.0145808348543102e+00
    1.9496240499656023e-02 -2.0280521083392182e+00
    1.9660914029192428e-02 -2.0199354970219172e+00
    1.9931727730235781e-02 -1.9970232204260099e+00
    2.0023586208301934e-02 -1.9783530714554678e+00
    1.9975114833487240e-02 -1.9374726438776175e+00
    1.9390931118490849e-02 -1.9084642547414687e+00
    1.9004446002387237e-02 -1.9014164185002094e+00
    1.8914987301918026e-02 -1.8930033314544552e+00
    1.8513805811573608e-02 -1.8409665653883507e+00
    1.8802821416579768e-02 -1.8024000006768026e+00
    1.8646337063114488e-02 -1.7513783976724182e+00
    1.8877433917288005e-02 -1.7782328233790787e+00
    1.9539762351578636e-02 -1.7868890627764669e+00
    1.9271185014462386e-02 -1.8190465718480886e+00
    1.9177409106245342e-02 -1.8040929691596825e+00
    1.9044049693469168e-02 -1.7610335725068789e+00
    1.8574443345629747e-02 -1.7490582361768285e+00
    1.8598366010502645e-02 -1.7271118981571321e+00
    1.8511302801068431e-02 -1.7089298176804537e+00
    1.8021225484621161e-02 -1.7174432673497200e+00
    1.7819927911646109e-02 -1.7367342242526460e+00
    1.8165120189756342e-02 -1.7960762587621584e+00
    1.8115385730683189e-02 -1.8339769485756423e+00
    1.8058974414329226e-02 -1.8155425754951211e+00
    1.7721768597521899e-02 -1.8133598333680221e+00
    1.7936461490542375e-02 -1.7914040913679197e+00
    1.7890852868585987e-02 -1.8082976231777053e+00
    1.7413916188974043e-02 -1.8290548560759894e+00
    1.7376436940718786e-02 -1.8213665266044328e+00
    1.7398454829206874e-02 -1.8056828176721178e+00
    1.8306728552048981e-02 -1.7966597856792161e+00
    1.8373140369611719e-02 -1.7695630818482286e+00
    1.7908435543333833e-02 -1.8092607522501074e+00
    1.6104021970267158e-02 -1.7601879013751665e+00
    1.7547514911239001e-02 -1.8024089463941970e+00
    1.8418136983098566e-02 -1.7908498760895781e+00
    1.8196555408344660e-02 -1.7061338485710431e+00
    1.7544040335792384e-02 -1.6169424902664107e+00
    1.7299444684239756e-02 -1.6279170617066980e+00
    1.7084025611829302e-02 -1.6548208444912837e+00
